# Classifier type:	svm
# number of classes	feature space dimension
2	35
# class names
Baseline Search
# Scaling: max	min
4.32565	0.0359722
45.342	0.68577
62.3942	1.68394
45.9021	1.57787
158.744	0.170393
10.7183	1.21774
4.52917	0.261968
8.79124	-8.05192
206.647	0.229019
40.953	0.6098
0.831133	2.23194e-05
0.768453	0.0585781
1588.68	0.116794
3.1706	0.0234183
0.974169	-0.674332
72.599	0.163815
0.990871	-0.988328
1.20135	0.122375
1333.4	53.5756
140.106	0.142951
208.232	0.00549136
6.59724	0.000432599
2.45653	0.0233435
344.947	0.759112
4.26118	0.408727
0.799522	0.0514257
10.9651	0.000674089
0.919104	-0.721278
126.636	1.76024
7.8462	-5.44587
110	29
3.31136	0.0259632
499.76	0.99943
3.33618	0.0893288
2688.75	2.90775

svm_type c_svc
kernel_type linear
nr_class 2
total_sv 664
rho -9.9133
label 0 1
probA -1.74212
probB -0.181583
nr_sv 331 333
SV
1 1:0.13745297 2:-0.57480979 3:-0.94188174 4:-0.57877842 5:-0.85000464 6:-0.63074844 7:0.079012152 8:-0.1502711 9:-0.83831722 10:-0.66398719 11:-0.98895252 12:-0.53469181 13:-0.98185047 14:-0.85374668 15:-0.061035441 16:-0.52683194 17:-0.20693715 18:-0.59350964 19:-0.88058132 20:-0.79541899 21:-0.98877337 22:-0.98165795 23:-0.8744196 24:-0.85048428 25:0.25013579 26:-0.48509173 27:-0.99275556 28:0.25243708 29:-0.98050567 30:-0.048219255 31:0.037037037 32:-0.89346278 33:-0.87230963 34:-0.89774517 35:-0.98621145 
1 1:-0.0053495544 2:-0.85724417 3:-0.93703573 4:-0.89067702 5:-0.77725058 6:-0.5338523 7:-0.23639135 8:-0.081938522 9:-0.60991228 10:-0.80248678 11:-0.97528494 12:-0.40771339 13:-0.98567385 14:-0.8855078 15:0.28485235 16:-0.72945427 17:-0.62788008 18:-0.41331907 19:-0.86073503 20:-0.63640941 21:-0.97036102 22:-0.99090754 23:-0.76298393 24:-0.73399777 25:-0.25106449 26:-0.31235432 27:-0.9946522 28:0.31975801 29:-0.95666095 30:-0.12515552 31:-0.33333333 32:-0.91038014 33:-0.87213022 34:-0.91185476 35:-0.9883299 
1 1:0.72229915 2:-0.61538778 3:-0.91128706 4:-0.58327162 5:-0.3748947 6:-0.44061579 7:-0.17323607 8:0.10110152 9:-0.39062358 10:-0.79859814 11:-0.8862289 12:-0.037474893 13:-0.5916024 14:-0.11748767 15:-0.013748998 16:-0.41558022 17:-0.52214622 18:0.37521159 19:-0.23717164 20:-0.37058692 21:-0.89117106 22:-0.60296923 23:-0.037914002 24:-0.07284413 25:0.13481755 26:0.044957688 27:-0.89528838 28:0.01317998 29:-0.92268626 30:-0.16537021 31:-0.43209877 32:-0.55430437 33:0.18741176 34:-0.57532875 35:-0.88903626 
1 1:0.47440116 2:-0.59493872 3:-0.72569328 4:-0.68303588 5:-0.60594563 6:-0.523027 7:0.02439014 8:-0.11344764 9:-0.52687102 10:-0.72041124 11:-0.85613139 12:-0.08460421 13:-0.95111174 14:-0.77177635 15:0.69303001 16:-0.58338156 17:0.77345114 18:-0.43776771 19:-0.7980208 20:-0.67985765 21:-0.84442284 22:-0.95201394 23:-0.83506043 24:-0.92140934 25:0.25497242 26:-0.37213274 27:-0.97166988 28:0.52014779 29:-0.92684758 30:-0.2049343 31:-0.2345679 32:-0.7753773 33:-0.86776015 34:-0.79554086 35:-0.96690656 
1 1:0.7316294 2:-0.78502684 3:-0.83539637 4:-0.63678227 5:-0.5025425 6:-0.54250752 7:-0.16257172 8:0.080599471 9:-0.42505372 10:-0.86629461 11:-0.83544489 12:0.080328795 13:-0.42523519 14:-0.07621723 15:-0.20277168 16:-0.26926097 17:-0.87912537 18:0.46031927 19:-0.1410151 20:-0.21334095 21:-0.81330958 22:-0.43041754 23:0.086743996 24:-0.40543773 25:0.067949884 26:0.30838935 27:-0.82688251 28:0.35552697 29:-0.93492712 30:-0.17146528 31:-0.60493827 32:-0.42254549 33:-0.18795012 34:-0.45167209 35:-0.83040589 
1 1:0.77539918 2:-0.54251611 3:-0.94443109 4:-0.25008844 5:-0.85040112 6:-0.3603583 7:-0.5298348 8:0.072312604 9:-0.85826338 10:-0.91849633 11:-0.95895579 12:-0.28891841 13:-0.91383804 14:-0.5537752 15:-0.085929907 16:-0.23738032 17:0.23947531 18:0.013166329 19:-0.5576478 20:-0.80309939 21:-0.95984582 22:-0.91375255 23:-0.52067897 24:-0.75057061 25:0.29631906 26:-0.26898204 27:-0.89997871 28:0.063481304 29:-0.979645 30:-0.23265477 31:-0.012345679 32:-0.56474635 33:-0.58228332 34:-0.58509211 35:-0.89313115 
1 1:0.010544305 2:-0.78171404 3:-0.91909595 4:-0.93044044 5:-0.55749846 6:-0.17456847 7:-0.062305266 8:-0.1201974 9:-0.61239594 10:-0.84896748 11:-0.79667934 12:0.028509107 13:-0.91338503 14:-0.85736022 15:0.30284228 16:-0.68207769 17:0.46096312 18:-0.46783353 19:-0.79179516 20:-0.54830269 21:-0.74453021 22:-0.91327899 23:-0.85738446 24:-0.85899764 25:0.057256845 26:-0.05978556 27:-0.98756378 28:0.11775436 29:-0.93169057 30:0.11771939 31:-0.67901235 32:-0.85606994 33:-0.74483585 34:-0.84142582 35:-0.97174401 
1 1:0.24200131 2:-0.74294316 3:-0.95835793 4:-0.75398969 5:-0.52484817 6:-0.55824621 7:0.23100599 8:-0.10462529 9:-0.18287975 10:-0.63704929 11:-0.86894279 12:-0.024380463 13:-0.87639529 14:-0.53313998 15:0.46841991 16:-0.63556859 17:0.4031929 18:-0.21154387 19:-0.65134438 20:-0.20432692 21:-0.86656531 22:-0.875612 23:-0.62891669 24:-0.64397564 25:0.022060457 26:0.056247895 27:-0.97169262 28:0.16040571 29:-0.97904218 30:-0.23265849 31:-0.13580247 32:-0.77547342 33:-0.54501264 34:-0.76440905 35:-0.9508795 
1 1:0.06095206 2:-0.85196976 3:-0.91713306 4:-0.89318357 5:-0.45440911 6:-0.62838146 7:-0.088284555 8:-0.30666654 9:-0.51696514 10:-0.78602583 11:-0.74153014 12:0.14809193 13:-0.98972376 14:-0.94137506 15:0.68496507 16:-0.7973946 17:0.58162441 18:-0.58689087 19:-0.88803181 20:-0.88287506 21:-0.74042369 22:-0.99005164 23:-0.93210541 24:-0.89699263 25:-0.038256916 26:-0.56513194 27:-0.98852963 28:0.69525752 29:-0.93237751 30:-0.36736425 31:0.25925926 32:-0.86233496 33:-0.93260439 34:-0.85896616 35:-0.97751926 
1 1:0.49741743 2:-0.84071407 3:-0.83622681 4:-0.77364665 5:-0.59545341 6:-0.66389318 7:-0.27387626 8:-0.038551447 9:-0.64397296 10:-0.88742571 11:-0.61509498 12:0.33478842 13:-0.90437668 14:-0.58653484 15:-0.23180745 16:-0.58521128 17:-0.11222897 18:-0.19065763 19:-0.62104956 20:-0.38011596 21:-0.63428613 22:-0.9045213 23:-0.65566865 24:-0.66376832 25:-0.07273219 26:-0.073639155 27:-0.92878497 28:0.6048371 29:-0.96169836 30:-0.19998511 31:-0.7037037 32:-0.63510719 33:-0.28043989 34:-0.6472586 35:-0.91614492 
1 1:-0.11772956 2:-0.88943209 3:-0.77120467 4:-0.86759217 5:-0.74358095 6:-0.70018871 7:0.097383306 8:-0.045508019 9:-0.75716791 10:-0.69089682 11:-0.96206422 12:-0.31383125 13:-0.98737191 14:-0.84171739 15:0.11974411 16:-0.70019858 17:0.015289875 18:-0.47170241 19:-0.86328761 20:-0.75116832 21:-0.96191936 22:-0.98825562 23:-0.81851727 24:-0.89877164 25:-0.18743051 26:-0.44755291 27:-0.99351303 28:0.15654923 29:-0.98156548 30:-0.081482338 31:0.037037037 32:-0.89992256 33:-0.91384363 34:-0.88733809 35:-0.98231773 
1 1:0.60212295 2:-0.62768759 3:-0.75919112 4:-0.72677973 5:0.28309753 6:-0.36256466 7:0.12928875 8:-0.037940229 9:-0.025896396 10:-0.6536721 11:-0.36712432 12:0.45587909 13:-0.8359065 14:-0.56062194 15:0.090190544 16:-0.48796109 17:0.48637106 18:0.37173499 19:-0.31846139 20:-0.42961558 21:-0.39472978 22:-0.83396562 23:-0.29571664 24:-0.50475577 25:0.30745509 26:-0.0044440851 27:-0.78913717 28:0.088504631 29:-0.89448939 30:-0.31042496 31:-0.43209877 32:-0.36109843 33:-0.62935983 34:-0.37966591 35:-0.78104159 
1 1:0.081171675 2:-0.89140682 3:-0.97914499 4:-0.89355939 5:-0.76906731 6:-0.64674771 7:-0.11234608 8:0.11715388 9:-0.60394052 10:-0.76676203 11:-0.96310285 12:-0.3100278 13:-0.99005892 14:-0.88531762 15:0.48924909 16:-0.69267245 17:0.46417211 18:-0.59090598 19:-0.89448286 20:-0.65498584 21:-0.93284556 22:-0.99021241 23:-0.87731005 24:-0.87148641 25:-0.19369624 26:-0.19425529 27:-0.99304069 28:-0.16404282 29:-0.98096677 30:-0.24178581 31:0.20987654 32:-0.89585356 33:-0.92549935 34:-0.89924669 35:-0.98637379 
1 1:0.59004263 2:-0.79175248 3:-0.95206877 4:-0.48632326 5:-0.77453657 6:-0.18829592 7:-0.074451909 8:0.019621974 9:-0.67067451 10:-0.7498442 11:-0.92810642 12:-0.3036222 13:-0.99146007 14:-0.87585585 15:-0.042554365 16:-0.4153099 17:-0.14740934 18:-0.43555013 19:-0.85097827 20:-0.74425752 21:-0.93115924 22:-0.99175703 23:-0.8264506 24:-0.77635854 25:0.084563448 26:-0.31207777 27:-0.96967907 28:0.21736468 29:-0.98094893 30:-0.23760986 31:-0.20987654 32:-0.76710838 33:-0.8188811 34:-0.7785049 35:-0.96031224 
1 1:0.16808341 2:-0.82726067 3:-0.86508486 4:-0.8272883 5:-0.51285478 6:-0.38271026 7:0.047186942 8:-0.069553208 9:-0.52796132 10:-0.74859689 11:-0.87779132 12:-0.19161713 13:-0.96473408 14:-0.80838723 15:0.37005059 16:-0.70311683 17:-0.0096768727 18:-0.44346355 19:-0.83317186 20:-0.78118607 21:-0.8790205 22:-0.96475358 23:-0.86273486 24:-0.80391075 25:-0.023144741 26:-0.38977601 27:-0.98689028 28:0.4737015 29:-0.82383854 30:-0.40127446 31:-0.18518519 32:-0.85184288 33:-0.90317677 34:-0.85311417 35:-0.97692095 
0.3776985511712232 1:0.6852625 2:-0.68935466 3:-0.90785496 4:-0.83705263 5:-0.015801353 6:-0.48096274 7:0.18446133 8:0.038168958 9:-0.10126259 10:-0.64535737 11:-0.62625455 12:0.38000862 13:-0.28154524 14:-0.32578931 15:0.45953168 16:-0.33526243 17:-0.23345508 18:0.16458182 19:-0.28705356 20:-0.51617055 21:-0.50019953 22:-0.28082894 23:-0.55776268 24:-0.71469814 25:0.23141112 26:0.10067698 27:-0.8907753 28:0.066075955 29:-0.95676713 30:-0.16360578 31:-0.38271605 32:-0.54447535 33:-0.77634442 34:-0.55216923 35:-0.8721825 
1 1:0.4811264 2:-0.73229324 3:-0.94214391 4:-0.69894971 5:-0.68862463 6:-0.55947617 7:-0.23384101 8:0.1152894 9:-0.71434393 10:-0.88495733 11:-0.91503268 12:-0.092430087 13:-0.82317239 14:-0.57341195 15:0.34953214 16:-0.53390313 17:-0.54933278 18:0.18940561 19:-0.49221224 20:-0.73967995 21:-0.91894001 22:-0.823309 23:-0.32818794 24:-0.1414266 25:0.14731993 26:-0.29909606 27:-0.95185164 28:0.17536924 29:-0.92366849 30:-0.35983321 31:-0.50617284 32:-0.70264628 33:-0.4787732 34:-0.71755734 35:-0.94267508 
1 1:0.66974069 2:-0.67606402 3:-0.94601128 4:-0.7926081 5:-0.08107787 6:-0.47047743 7:-0.648949 8:0.0098589836 9:-0.25094182 10:-0.98096229 11:-0.62507897 12:0.33647931 13:-0.73897505 14:-0.24610126 15:-0.23844524 16:-0.35037915 17:0.53336263 18:0.1356468 19:-0.32892804 20:-0.47372532 21:-0.56301071 22:-0.73894278 23:-0.2654593 24:-0.2993774 25:0.24084388 26:-0.060101154 27:-0.84612054 28:0.10014607 29:-1 30:-0.2599103 31:-0.43209877 32:-0.45645477 33:-0.4569475 34:-0.46157475 35:-0.82253938 
0.1611833735964689 1:0.044161702 2:-0.77825953 3:-0.85154434 4:-0.62863077 5:-0.91485704 6:-0.54209235 7:0.27006845 8:-0.16177147 9:-0.83692409 10:-0.60365138 11:-0.94229667 12:-0.30956978 13:-0.96801999 14:-0.75851086 15:0.4290711 16:-0.67052016 17:0.21298786 18:-0.33089069 19:-0.79181387 20:-0.81764567 21:-0.94275255 22:-0.96821945 23:-0.80480304 24:-0.77274661 25:0.11037596 26:-0.44504043 27:-0.98629076 28:0.034678722 29:-0.91176428 30:-0.16822534 31:-0.012345679 32:-0.84816979 33:-0.8990149 34:-0.83535044 35:-0.97049353 
0.8570331792609654 1:0.27908142 2:-0.79046454 3:-0.8245395 4:-0.61213645 5:-0.52558838 6:-0.72419901 7:-0.0039608169 8:-0.036115596 9:-0.36718346 10:-0.68619138 11:-0.8397467 12:0.1039034 13:-0.93373398 14:-0.687714 15:0.43477513 16:-0.67418674 17:0.18512268 18:-0.2282546 19:-0.65110936 20:0.066057338 21:-0.83227198 22:-0.93405795 23:-0.56391259 24:-0.8396615 25:-0.024021315 26:0.20363025 27:-0.94637258 28:0.76763502 29:-0.96355263 30:-0.10166437 31:0.012345679 32:-0.68535128 33:-0.79046395 34:-0.68086214 35:-0.92360263 
1 1:0.5846981 2:-0.82335923 3:-0.9508784 4:-0.87333949 5:-0.224464 6:-0.55954458 7:-0.37660401 8:0.19298848 9:-0.11882121 10:-0.92655718 11:-0.36453291 12:0.47311929 13:-0.74184407 14:-0.34999049 15:0.23017107 16:-0.55298537 17:0.29111836 18:0.36111128 19:-0.27516054 20:-0.52533955 21:-0.38036951 22:-0.74583403 23:-0.19774919 24:-0.079641836 25:-0.17618698 26:-0.014557091 27:-0.82092954 28:0.34465209 29:-0.97655053 30:-0.13094004 31:-0.012345679 32:-0.41243864 33:-0.48547572 34:-0.41859509 35:-0.79787048 
1 1:0.5834978 2:-0.67662372 3:-0.94645366 4:-0.58547282 5:-0.73079782 6:-0.79334101 7:-0.14246853 8:0.098069257 9:-0.60342199 10:-0.82792307 11:-0.93659564 12:-0.15170948 13:-0.88409828 14:-0.46091673 15:0.11927198 16:-0.43691583 17:-0.1715094 18:0.024536138 19:-0.54556621 20:-0.6806267 21:-0.93956819 22:-0.88276119 23:-0.36004427 24:-0.35415152 25:0.13911551 26:-0.28890345 27:-0.94140432 28:-0.20700618 29:-0.99433216 30:-0.19413536 31:-0.40740741 32:-0.67041644 33:-0.38680437 34:-0.68435921 35:-0.93085462 
1 1:0.52807644 2:-0.64713133 3:-0.87083504 4:-0.80312096 5:-0.40551391 6:-0.34560957 7:-0.12351217 8:-0.075300059 9:-0.62022912 10:-0.84090777 11:-0.64706388 12:0.11784437 13:-0.66739328 14:-0.71296121 15:0.089121457 16:-0.53112223 17:-0.066747169 18:0.20603291 19:-0.51982682 20:-0.79858593 21:-0.66458246 22:-0.67350119 23:-0.59029551 24:-0.36617929 25:0.24082495 26:-0.24478406 27:-0.96062811 28:0.031486029 29:-0.88720359 30:-0.41853306 31:-0.67901235 32:-0.73254184 33:-0.060522506 34:-0.74692553 35:-0.95179678 
1 1:0.64786425 2:-0.73203334 3:-0.76514528 4:-0.63852657 5:-0.30617976 6:-0.3259443 7:0.086333102 8:0.019163118 9:-0.16137312 10:-0.74757476 11:-0.82067689 12:0.056126128 13:-0.080955424 14:-0.10403199 15:0.097712983 16:-0.36767246 17:-0.96860021 18:0.54225716 19:-0.030009113 20:0.94777603 21:-0.82171558 22:-0.07891432 23:-0.019894906 24:-0.31370882 25:0.16230004 26:0.52942429 27:-0.83644126 28:0.20337571 29:-0.89026432 30:-0.19897098 31:-0.35802469 32:-0.4391446 33:-0.29276162 34:-0.46860629 35:-0.83994075 
1 1:0.57261088 2:-0.80665209 3:-0.93285457 4:-0.50351569 5:-0.81929601 6:-0.36300654 7:0.24412704 8:0.10281842 9:-0.76316547 10:-0.64802168 11:-0.93043696 12:-0.26763806 13:-0.93240752 14:-0.72408712 15:-0.29360013 16:-0.34911322 17:0.21247829 18:-0.33678308 19:-0.74173468 20:-0.78228295 21:-0.93385622 22:-0.93255926 23:-0.7393069 24:-0.83634256 25:-0.03016414 26:-0.386235 27:-0.96252938 28:0.35243123 29:-0.83879006 30:-0.28854869 31:-0.037037037 32:-0.73944405 33:-0.6539884 34:-0.75136745 35:-0.95247192 
1 1:0.61549361 2:-0.69211545 3:-0.98009271 4:-0.54372446 5:-0.57672419 6:-0.53061673 7:-0.39626956 8:-0.00044187274 9:-0.53688818 10:-0.94759059 11:-0.87824528 12:-0.0035277486 13:-0.77603772 14:-0.22770066 15:-0.33406368 16:-0.36508567 17:0.4978359 18:0.16359188 19:-0.32376212 20:-0.59281228 21:-0.88303922 22:-0.77939505 23:-0.1748102 24:-0.35446965 25:0.067641313 26:-0.082274426 27:-0.84982672 28:-0.11847327 29:-0.99110046 30:-0.124947 31:-0.55555556 32:-0.46322635 33:-0.37585298 34:-0.47401172 35:-0.83279527 
1 1:0.53259772 2:-0.75795224 3:-0.9693006 4:-0.61645701 5:-0.49513608 6:-0.75711363 7:-0.041833312 8:0.020608083 9:-0.42693395 10:-0.78061924 11:-0.897392 12:-0.043854808 13:-0.93283142 14:-0.71063144 15:-0.45508364 16:-0.50218905 17:0.57523221 18:0.0031505027 19:-0.60833564 20:-0.55971145 21:-0.89554341 22:-0.93378232 23:-0.33685929 24:-0.56647359 25:-0.17175138 26:-0.11220678 27:-0.94076777 28:0.1219842 29:-0.97393302 30:-0.2608658 31:0.20987654 32:-0.66854938 33:-0.60985626 34:-0.6702464 35:-0.92150173 
1 1:0.30107858 2:-0.83964708 3:-0.88179017 4:-0.35982252 5:-0.93064481 6:-0.59985569 7:0.18813851 8:-0.078886042 9:-0.85099994 10:-0.57686058 11:-0.99341561 12:-0.62345842 13:-0.98943688 14:-0.93657285 15:0.41165566 16:-0.39083623 17:-0.063107517 18:-0.6738148 19:-0.88176185 20:-0.75911422 21:-0.993656 22:-0.99442611 23:-0.92632455 24:-0.96488744 25:-0.24083394 26:-0.43410861 27:-0.9932477 28:0.11850539 29:-0.96194537 30:0.0058519134 31:0.061728395 32:-0.89761956 33:-0.89071459 34:-0.90961738 35:-0.98907698 
1 1:0.6935005 2:-0.84214613 3:-0.96736274 4:-0.75023291 5:-0.13775771 6:-0.57423368 7:-0.3771415 8:-0.0092288041 9:0.054992637 10:-0.91136449 11:-0.60097357 12:0.43788152 13:-0.48342203 14:0.15324269 15:0.22283238 16:-0.29370763 17:0.10682111 18:0.17340729 19:-0.16619961 20:-0.36540951 21:-0.54538609 22:-0.4942022 23:-0.33390735 24:-0.67414941 25:-0.21496374 26:0.141828 27:-0.79484009 28:-0.021688497 29:-0.97945778 30:-0.12532793 31:-0.50617284 32:-0.37000738 33:-0.27939996 34:-0.3723312 35:-0.76621328 
1 1:0.41784364 2:-0.60804126 3:-0.94186364 4:-0.55515249 5:-0.62491779 6:-0.60156216 7:0.27181144 8:0.064789036 9:-0.83218396 10:-0.46951139 11:-0.87998047 12:-0.055332575 13:-0.91885002 14:-0.6984595 15:-0.11662748 16:-0.5488834 17:0.42470091 18:-0.17352773 19:-0.60505311 20:-0.58208196 21:-0.88546064 22:-0.93188272 23:-0.68162108 24:-0.695741 25:-0.0071085868 26:-0.19147024 27:-0.93355865 28:0.76203697 29:-0.95105896 30:-0.22917789 31:0.38271605 32:-0.64806517 33:-0.81948293 34:-0.64805731 35:-0.91211022 
1 1:0.19222294 2:-0.60687877 3:-0.89736889 4:-0.90928576 5:-0.80722236 6:-0.056604938 7:0.35398097 8:-0.20734177 9:-0.82322781 10:-0.28391439 11:-0.97051225 12:-0.33269702 13:-0.97356944 14:-0.87276531 15:0.40219286 16:-0.6053687 17:-0.20773288 18:-0.41254065 19:-0.8426223 20:-0.88227734 21:-0.93102608 22:-0.97345045 23:-0.84803666 24:-0.85013214 25:0.14260893 26:-0.57427985 27:-0.9870528 28:0.10437945 29:-0.95674585 30:-0.099968905 31:0.38271605 32:-0.85285288 33:-0.86292985 34:-0.85067687 35:-0.97585203 
1 1:0.72794914 2:-0.61498146 3:-0.80090747 4:-0.67550499 5:-0.52059862 6:-0.37573611 7:0.16283706 8:0.030743953 9:-0.32824048 10:-0.6938193 11:-0.84246301 12:-0.037665829 13:-0.71894153 14:-0.68020159 15:0.3499248 16:-0.346062 17:0.65897004 18:0.19055685 19:-0.47492511 20:-0.54766462 21:-0.84832123 22:-0.71629093 23:-0.63070017 24:-0.48012343 25:0.31292854 26:-0.162951 27:-0.88520982 28:0.25332509 29:-0.88037347 30:-0.47015259 31:0.38271605 32:-0.53262956 33:-0.62676945 34:-0.55698967 35:-0.88208945 
1 1:0.54254557 2:-0.84889686 3:-0.88870736 4:-0.80433226 5:-0.49056171 6:-0.38565171 7:0.069010112 8:-0.020731812 9:-0.40803573 10:-0.76440198 11:-0.69678334 12:0.039198863 13:-0.98690729 14:-0.93115253 15:0.42095558 16:-0.54570399 17:-0.56418962 18:-0.42576013 19:-0.82671857 20:-0.69810429 21:-0.69481772 22:-0.98723288 23:-0.9421297 24:-0.79790677 25:-0.10093629 26:-0.15177051 27:-0.9731051 28:0.82877384 29:-0.97498515 30:0.036444461 31:-0.086419753 32:-0.78151959 33:-0.86405373 34:-0.79698666 35:-0.96619451 
1 1:0.25528482 2:-0.90398878 3:-0.92998837 4:-0.81139229 5:-0.2786898 6:-0.53943171 7:-0.14457044 8:-0.0035724862 9:-0.40307754 10:-0.85882357 11:-0.83805958 12:-0.026293102 13:-0.97198752 14:-0.77344047 15:-0.20497443 16:-0.67874411 17:-0.51782578 18:-0.24148518 19:-0.77561415 20:-0.3748358 21:-0.84395069 22:-0.97269037 23:-0.74084438 24:-0.55787762 25:-0.20767445 26:0.022666178 27:-0.97821941 28:0.59212152 29:-0.98656777 30:-0.23052889 31:-0.13580247 32:-0.80485626 33:-0.77098788 34:-0.8049337 35:-0.96501585 
1 1:0.44512975 2:-0.77298469 3:-0.86118188 4:-0.66947503 5:-0.29483922 6:-0.53784936 7:0.16890468 8:-0.087310773 9:-0.73688426 10:-0.62802711 11:-0.71375572 12:0.10168866 13:-0.55145154 14:-0.73112401 15:0.44811934 16:-0.59575448 17:0.77131607 18:0.0097237547 19:-0.54351138 20:-0.23108594 21:-0.72374159 22:-0.54621727 23:-0.70818856 24:-0.55608561 25:0.011431534 26:0.0092447413 27:-0.95769194 28:-0.78482121 29:-0.912675 30:-0.27366569 31:0.45679012 32:-0.72220124 33:-0.20449723 34:-0.72809873 35:-0.94353941 
1 1:0.34846448 2:-0.80772907 3:-0.90749755 4:-0.8400848 5:-0.54739186 6:-0.48417321 7:-0.15217545 8:-0.012100522 9:-0.33110805 10:-0.82397546 11:-0.84844653 12:-0.0067747602 13:-0.96152343 14:-0.74643403 15:0.5848155 16:-0.51910734 17:0.054957687 18:-0.41113436 19:-0.79779608 20:-0.17676884 21:-0.78871795 22:-0.961344 23:-0.76015499 24:-0.83488438 25:-0.062981821 26:0.00097 27:-0.98155913 28:0.043680599 29:-0.94635409 30:-0.17847404 31:-0.60493827 32:-0.82160309 33:-0.89959695 34:-0.82292085 35:-0.96987075 
1 1:0.47087642 2:-0.65197323 3:-0.3237006 4:-0.52684014 5:-0.87485333 6:-0.03160855 7:0.22377745 8:-0.49758571 9:-0.67969048 10:-0.58530534 11:-0.94181686 12:-0.41521751 13:-0.87859849 14:-0.93005897 15:0.51316709 16:-0.51990025 17:0.9426364 18:-0.69075986 19:-0.84130121 20:-0.57692139 21:-0.94472139 22:-0.87744348 23:-0.94920205 24:-0.90673809 25:0.30948264 26:-0.18186803 27:-0.96547338 28:0.057314222 29:-0.7096982 30:-0.42192776 31:0.16049383 32:-0.7504857 33:-0.73693104 34:-0.75592842 35:-0.95225432 
1 1:0.17470471 2:-0.73208295 3:-0.92851493 4:-0.89462328 5:0.20298132 6:-0.5270098 7:-0.21314646 8:-0.28995419 9:0.084892852 10:-0.81838164 11:-0.29243022 12:0.56378422 13:-0.91640125 14:-0.65100799 15:0.21677075 16:-0.7716349 17:0.037510259 18:-0.20736901 19:-0.6828182 20:-0.69356866 21:-0.31448373 22:-0.91543704 23:-0.64582886 24:-0.64438082 25:0.12961442 26:-0.22961925 27:-0.95933948 28:0.28918191 29:-0.93816872 30:-0.28199485 31:-0.7037037 32:-0.72795781 33:-0.56996878 34:-0.71174621 35:-0.93170379 
1 1:0.70841416 2:-0.84743225 3:-0.91981955 4:-0.7603251 5:-0.57774236 6:-0.38619738 7:-0.30299882 8:0.059886116 9:-0.63381933 10:-0.88578786 11:-0.81800999 12:0.17954002 13:-0.56848801 14:-0.21391218 15:0.019310325 16:-0.30533955 17:-0.16743603 18:0.29434883 19:-0.13325273 20:-0.70197785 21:-0.68758423 22:-0.56416324 23:-0.1596814 24:-0.47797919 25:-0.33413912 26:0.059011427 27:-0.76089062 28:0.23209555 29:-0.93445849 30:-0.14613757 31:-0.45679012 32:-0.31864889 33:-0.46088732 34:-0.32438245 35:-0.7356982 
1 1:0.56186769 2:-0.71069658 3:-0.91201065 4:-0.76393691 5:-0.51400689 6:-0.50058038 7:-0.040799115 8:0.15211629 9:-0.37410933 10:-0.74335294 11:-0.69677047 12:0.15114767 13:-0.66723237 14:-0.49091865 15:0.43623717 16:-0.53237615 17:-0.28298156 18:-0.039412174 19:-0.50919115 20:-0.47595401 21:-0.67480405 22:-0.6634404 23:-0.57645832 24:-0.65814255 25:0.17846962 26:0.095096616 27:-0.93945152 28:0.22084373 29:-0.95373542 30:-0.23191739 31:-0.13580247 32:-0.66472016 33:-0.58763444 34:-0.67658472 35:-0.927315 
1 1:0.06409475 2:-0.85756316 3:-0.91309458 4:-0.81673175 5:-0.72561764 6:-0.62681392 7:0.12071112 8:-0.068171988 9:-0.60980916 10:-0.68638172 11:-0.95163532 12:-0.29644478 13:-0.97732494 14:-0.82488589 15:0.20615704 16:-0.68521221 17:-0.24116777 18:-0.47726799 19:-0.8334023 20:-0.65636546 21:-0.93894749 22:-0.9771209 23:-0.81267489 24:-0.93195649 25:-0.068988371 26:-0.31291515 27:-0.98599378 28:0.11875897 29:-0.93592805 30:-0.17575261 31:-0.11111111 32:-0.84637976 33:-0.88314391 34:-0.83632442 35:-0.97121 
1 1:0.63303718 2:-0.55571056 3:-0.89147333 4:-0.81794598 5:-0.78630996 6:-0.27671803 7:-0.081362756 8:0.079823354 9:-0.56625065 10:-0.80957309 11:-0.91930973 12:-0.13713962 13:-0.64398827 14:-0.63764742 15:0.16268157 16:-0.40291826 17:0.3494468 18:0.0032285045 19:-0.48159012 20:-0.57416071 21:-0.89288406 22:-0.64002947 23:-0.56944745 24:-0.71727189 25:0.41651094 26:-0.16990672 27:-0.88432889 28:0.024186195 29:-0.94234877 30:-0.0068161473 31:-0.086419753 32:-0.53078104 33:-0.8426918 34:-0.55317109 35:-0.87933646 
1 1:0.39773052 2:-0.56354643 3:-0.8880668 4:-0.90393643 5:-0.47802119 6:-0.27256648 7:-0.063590664 8:-0.069440693 9:-0.59409925 10:-0.85264565 11:-0.86085702 12:-0.0026435969 13:-0.90031948 14:-0.74809817 15:-0.17493983 16:-0.53218061 17:-0.10255769 18:-0.27928875 19:-0.73418334 20:-0.8439594 21:-0.81569339 22:-0.90120892 23:-0.7786661 24:-0.8621357 25:0.31660936 26:-0.50311819 27:-0.97587303 28:0.10308575 29:-0.84553705 30:-0.21915778 31:-0.30864198 32:-0.79384483 33:-0.50634134 34:-0.79617558 35:-0.96312788 
1 1:0.37109925 2:-0.81552744 3:-0.83143329 4:-0.74625381 5:-0.42407276 6:-0.26242151 7:0.0097892499 8:-0.16320935 9:-0.66357329 10:-0.74922441 11:-0.78122482 12:-0.022992521 13:-0.7644176 14:-0.82716813 15:0.38110057 16:-0.66529773 17:0.82130811 18:-0.22602768 19:-0.71434287 20:-0.31626835 21:-0.79174222 22:-0.76474601 23:-0.82036223 24:-0.73178135 25:-0.052917312 26:-0.077891258 27:-0.97358292 28:-0.74178221 29:-0.84927404 30:-0.30197188 31:-0.58024691 32:-0.78360051 33:-0.88821546 34:-0.79380273 35:-0.96420442 
1 1:0.49560342 2:-0.6672559 3:-0.91880312 4:-0.81581447 5:-0.42999312 6:-0.53893242 7:0.16427767 8:-0.082697528 9:-0.60504528 10:-0.62540734 11:-0.79879308 12:-0.0045558164 13:-0.97929558 14:-0.84623432 15:-0.21009718 16:-0.58784897 17:-0.47115223 18:-0.51591627 19:-0.83066816 20:-0.849381 21:-0.80830806 22:-0.97960803 23:-0.82485163 24:-0.86503466 25:0.1655948 26:-0.5075569 27:-0.9663598 28:0.61917289 29:-0.82917318 30:-0.27169139 31:-0.38271605 32:-0.75390144 33:-0.68724847 34:-0.76943976 35:-0.95877549 
1 1:0.49377463 2:-0.56112206 3:-0.94108134 4:-0.52137425 5:-0.80676231 6:-0.54909576 7:0.32932418 8:-0.029570902 9:-0.80944607 10:-0.3877302 11:-0.90477477 12:-0.071803322 13:-0.95385844 14:-0.71015597 15:0.3860862 16:-0.48739116 17:0.60493378 18:-0.21526774 19:-0.69544444 20:-0.77097073 21:-0.90930232 22:-0.95340769 23:-0.68371206 24:-0.78115911 25:0.32053884 26:-0.31350084 27:-0.95944457 28:-0.30733219 29:-0.97236792 30:-0.2022757 31:0.35802469 32:-0.72832889 33:-0.73392236 34:-0.74020915 35:-0.94910063 
1 1:0.41973268 2:-0.76740227 3:-0.94733024 4:-0.68671351 5:-0.4473797 6:-0.57893084 7:0.19730112 8:-0.013315181 9:-0.55268007 10:-0.43498107 11:-0.88672002 12:-0.078560912 13:-0.96351151 14:-0.74914418 15:0.29348644 16:-0.53041648 17:0.16258014 18:-0.27953513 19:-0.73722119 20:-0.53184923 21:-0.88199288 22:-0.96309668 23:-0.67085883 24:-0.85132248 25:0.0465164 26:0.026192679 27:-0.96748648 28:0.096424808 29:-0.98814859 30:-0.13813296 31:0.2345679 32:-0.75830839 33:-0.75888157 34:-0.75856666 35:-0.95176273 
1 1:0.52884188 2:-0.70658002 3:-0.89960218 4:-0.80123899 5:-0.16603854 6:0.023048514 7:0.10231974 8:0.094118565 9:-0.21147429 10:-0.68373871 11:-0.62551605 12:0.18895645 13:-0.95266724 14:-0.87538038 15:0.37639956 16:-0.44852468 17:0.61350743 18:-0.2760941 19:-0.73435043 20:-0.65954047 21:-0.6378735 22:-0.95299152 23:-0.83395344 24:-0.74492664 25:0.060709175 26:-0.28827099 27:-0.95213514 28:0.23052505 29:-0.89847347 30:-0.16281434 31:0.65432099 32:-0.70356726 33:-0.85502556 34:-0.70982357 35:-0.93735215 
1 1:0.24576149 2:-0.75534898 3:-0.89616848 4:-0.90346492 5:0.14680965 6:-0.43520472 7:-0.17254382 8:-0.22890227 9:-0.04389618 10:-0.79379974 11:-0.48533614 12:0.43428295 13:-0.80842771 14:-0.63379616 15:0.64234753 16:-0.72143903 17:0.68140256 18:-0.10282707 19:-0.62341953 20:-0.62368378 21:-0.51085929 22:-0.8122921 23:-0.64878077 24:-0.69065442 25:0.090186295 26:-0.27051531 27:-0.97067443 28:-0.043959367 29:-0.94740671 30:-0.30554928 31:-0.50617284 32:-0.77120772 33:-0.7261063 34:-0.76754805 35:-0.95357181 
1 1:0.50263112 2:-0.74070388 3:-0.74855217 4:-0.7778185 5:-0.31963409 6:-0.37033563 7:-0.068059109 8:-0.0984346 9:-0.22046472 10:-0.79674339 11:-0.62796952 12:0.016737462 13:-0.96842829 14:-0.86938951 15:-0.18191767 16:-0.5855121 17:-0.86994886 18:-0.48983075 19:-0.79213071 20:-0.47584739 21:-0.64585318 22:-0.97087018 23:-0.89010178 24:-0.86567374 25:0.12795869 26:-0.11426447 27:-0.9690054 28:0.70381475 29:-0.93413025 30:-0.13413892 31:-0.18518519 32:-0.76437179 33:-0.77633965 34:-0.77514825 35:-0.95919568 
1 1:0.76979309 2:-0.72414974 3:-0.96895619 4:-0.73551464 5:0.11384582 6:-0.61273749 7:-0.024786331 8:-0.011141312 9:0.035097575 10:-0.77562838 11:-0.54493259 12:0.39317182 13:-0.63106495 14:-0.23906433 15:0.19900973 16:-0.29125661 17:0.11470018 18:0.3564325 19:-0.21126204 20:-0.5597033 21:-0.56372197 22:-0.63649006 23:-0.081762586 24:-0.59115293 25:0.03810738 26:-0.035898794 27:-0.81537316 28:0.14782882 29:-0.95748397 30:-0.10124343 31:0.061728395 32:-0.40315552 33:-0.10832573 34:-0.4110149 35:-0.7936824 
1 1:0.56744043 2:-0.79255422 3:-0.92361207 4:-0.79120466 5:-0.33601194 6:-0.37805972 7:0.14397054 8:0.032605618 9:-0.29395271 10:-0.76173119 11:-0.81633038 12:0.068870676 13:-0.85830708 14:-0.79978128 15:0.54194739 16:-0.53167088 17:0.051631798 18:-0.18601564 19:-0.68893044 20:-0.66906016 21:-0.80997602 22:-0.86912495 23:-0.78001909 24:-0.48460578 25:-0.056892962 26:-0.11433977 27:-0.97552932 28:0.1783286 29:-0.75610582 30:0.014413393 31:-0.60493827 32:-0.79227737 33:-0.65375023 34:-0.8091545 35:-0.96958093 
1 1:0.75399516 2:-0.59118422 3:-0.92377757 4:-0.80476602 5:-0.24684627 6:-0.43955517 7:-0.10477818 8:0.1004493 9:-0.071219485 10:-0.80494326 11:-0.59248456 12:0.22638688 13:-0.40370964 14:-0.11815334 15:0.08493552 16:-0.29398259 17:-0.66554306 18:0.36906337 19:-0.11564411 20:-0.40251795 21:-0.50221644 22:-0.42688347 23:-0.12136768 24:-0.37539357 25:0.29615654 26:0.16266209 27:-0.80545453 28:0.051701298 29:-0.92931247 30:-0.11513819 31:-0.55555556 32:-0.38692492 33:0.11251325 34:-0.41098201 35:-0.80380624 
1 1:0.60327978 2:-0.9305585 3:-0.9274481 4:-0.75331947 5:-0.12923473 6:-0.36606042 7:-0.24166145 8:-0.061166934 9:-0.24665318 10:-0.91597184 11:-0.51480373 12:0.42008379 13:-0.72065201 14:-0.46500575 15:0.06500176 16:-0.43458821 17:0.087594238 18:0.19037897 19:-0.36114659 20:-0.54237335 21:-0.53723593 22:-0.73030611 23:-0.20131608 24:-0.6595607 25:-0.62019297 26:-0.082318726 27:-0.85189033 28:0.15763983 29:-0.96406778 30:-0.30700113 31:-0.77777778 32:-0.467033 33:-0.40245265 34:-0.46139914 35:-0.81692566 
1 1:0.41602853 2:-0.84509002 3:-0.91492645 4:-0.88444209 5:-0.14905899 6:-0.60089744 7:0.096855089 8:0.071240835 9:-0.12077208 10:-0.69469732 11:-0.70923414 12:0.28526534 13:-0.9283125 14:-0.65856794 15:0.37880489 16:-0.62994333 17:-0.47920651 18:-0.017762703 19:-0.59406263 20:-0.64156643 21:-0.65379134 22:-0.92925772 23:-0.64109345 24:-0.3863624 25:-0.16786695 26:-0.14476443 27:-0.93178138 28:0.63514838 29:-0.97526042 30:-0.1649068 31:0.5308642 32:-0.64318816 33:-0.67380824 34:-0.64856225 35:-0.9142241 
1 1:0.63454139 2:-0.68538701 3:-0.93180442 4:-0.52478266 5:-0.57444019 6:-0.40188507 7:-0.15103945 8:0.074339015 9:-0.31936448 10:-0.86241597 11:-0.87325851 12:0.010229165 13:-0.45584845 14:-0.044931622 15:-0.66201619 16:-0.36096217 17:0.59575565 18:0.25518762 19:-0.21635194 20:-0.12502516 21:-0.87350346 22:-0.45536159 23:-0.18323545 24:-0.46123337 25:0.06994563 26:0.19378248 27:-0.88505685 28:-0.0061249593 29:-0.91956335 30:-0.089626013 31:-0.5308642 32:-0.53230804 33:0.26136615 34:-0.54043984 35:-0.86658942 
1 1:0.44528059 2:-0.86026204 3:-0.94991694 4:-0.87844385 5:-0.587793 6:-0.40398403 7:-0.073730709 8:0.036236891 9:-0.46901864 10:-0.77476085 11:-0.85263718 12:0.0016230859 13:-0.91827822 14:-0.73074364 15:0.14878337 16:-0.50603834 17:0.23265968 18:0.020131137 19:-0.59918768 20:-0.55129531 21:-0.81155377 22:-0.91996493 23:-0.58549859 24:-0.34976565 25:-0.16469807 26:-0.089448774 27:-0.93897939 28:-0.23178714 29:-0.96128972 30:-0.20683286 31:0.2345679 32:-0.66335676 33:-0.57759228 34:-0.65617056 35:-0.91284165 
1 1:-0.16791071 2:-0.93383475 3:-0.89081365 4:-0.77777361 5:-0.86756026 6:-0.50122573 7:0.047714376 8:-0.093936787 9:-0.81932415 10:-0.81345519 11:-0.97429709 12:-0.48819555 13:-0.98839233 14:-0.9084728 15:0.44289496 16:-0.81283535 17:0.75637587 18:-0.73237916 19:-0.9289985 20:-0.68543458 21:-0.9728027 22:-0.9901599 23:-0.92540205 24:-0.96560305 25:-0.31409946 26:-0.23953483 27:-0.99506941 28:-0.26582554 29:-0.80831038 30:-0.26036981 31:-0.43209877 32:-0.9144798 33:-0.84460887 34:-0.9070343 35:-0.98661494 
1 1:0.60470518 2:-0.6928317 3:-0.9788602 4:-0.68422597 5:-0.40923692 6:-0.61430288 7:-0.30243819 8:0.061812931 9:-0.39736731 10:-0.91462965 11:-0.8510382 12:-0.032202393 13:-0.77209567 14:-0.39373339 15:-0.20550508 16:-0.45659928 17:-0.029982156 18:0.10616544 19:-0.45127341 20:-0.70870118 21:-0.85779055 22:-0.78448553 23:-0.34220968 24:-0.41030262 25:0.12168095 26:-0.2005211 27:-0.93185817 28:-0.13448189 29:-0.95331907 30:-0.26771559 31:-0.80246914 32:-0.64339756 33:-0.3683226 34:-0.65780653 35:-0.92104826 
1 1:0.757232 2:-0.69422413 3:-0.9178284 4:-0.77076729 5:-0.11571006 6:-0.16177847 7:0.1567443 8:0.017299952 9:-0.042711215 10:-0.56966717 11:-0.18469946 12:0.42913169 13:-0.94980958 14:-0.78285471 15:-0.23771493 16:-0.3660066 17:0.093424923 18:0.19041875 19:-0.53549921 20:-0.42853629 21:-0.22176017 22:-0.94971967 23:-0.61428001 24:0.062868291 25:-0.091421089 26:-0.24744115 27:-0.83599779 28:-0.029301972 29:-0.97153378 30:-0.25423857 31:-0.11111111 32:-0.43836397 33:-0.64777136 34:-0.44846739 35:-0.81785895 
1 1:0.61743923 2:-0.72938653 3:-0.95750618 4:-0.82280551 5:0.085941124 6:-0.51400258 7:0.10682271 8:-0.031337943 9:-0.11612041 10:-0.7449325 11:-0.6359766 12:0.40157487 13:-0.83981834 14:-0.55082733 15:0.32091382 16:-0.37803386 17:-0.0065191481 18:0.10085237 19:-0.47995238 20:-0.61675619 21:-0.60349356 22:-0.83937595 23:-0.38409026 24:-0.4778845 25:0.10321113 26:-0.046204853 27:-0.90272876 28:0.41957252 29:-0.91397165 30:-0.14794763 31:-0.40740741 32:-0.57098269 33:-0.73654871 34:-0.57913224 35:-0.88522185 
1 1:0.49776691 2:-0.78248102 3:-0.94248736 4:-0.8755897 5:-0.20263465 6:-0.30976334 7:-0.40123046 8:-0.213486 9:-0.2673922 10:-0.9170221 11:-0.64891044 12:0.32375256 13:-0.89868266 14:-0.69199317 15:0.22550734 16:-0.50725066 17:-0.82219989 18:-0.19638612 19:-0.70955404 20:-0.63764311 21:-0.65525722 22:-0.90349902 23:-0.65991204 24:-0.64123061 25:-0.090151158 26:-0.083121453 27:-0.96856661 28:0.26472877 29:-0.975313 30:-0.26085131 31:-0.2345679 32:-0.76260528 33:-0.81806263 34:-0.7714532 35:-0.9576863 
1 1:0.60748238 2:-0.9420369 3:-0.97505411 4:-0.92901307 5:-0.044486335 6:-0.55163403 7:-0.19064041 8:0.18768198 9:-0.24389427 10:-0.87125626 11:-0.34475032 12:0.68787613 13:-0.76654837 14:-0.37809055 15:-0.20436847 16:-0.53303255 17:0.3060179 18:0.66388326 19:-0.21466389 20:-0.40167032 21:-0.37743407 22:-0.80203828 23:0.43654859 24:0.15317377 25:-0.53249269 26:0.17358141 27:-0.87869251 28:0.010700259 29:-0.94544473 30:-0.12336495 31:0.16049383 32:-0.51911682 33:-0.3960929 34:-0.52370012 35:-0.85640751 
0.5488537917696329 1:0.18305698 2:-0.75892402 3:-0.8807211 4:-0.87688143 5:-0.47410539 6:-0.43304925 7:-0.0721398 8:-0.097325613 9:-0.50986204 10:-0.79964391 11:-0.80236639 12:0.12986866 13:-0.92140794 14:-0.75779767 15:0.47447792 16:-0.60606296 17:0.68104081 18:-0.46148517 19:-0.74872738 20:-0.52736176 21:-0.77246545 22:-0.92083699 23:-0.86937671 24:-0.91265251 25:0.060981603 26:-0.18831232 27:-0.97315139 28:0.075490225 29:-0.92413001 30:-0.1159629 31:0.012345679 32:-0.78172034 33:-0.87536564 34:-0.77455225 35:-0.95485743 
1 1:-0.44722987 2:-0.68888387 3:-0.81284469 4:-0.90942503 5:-0.84835179 6:-0.36739297 7:-0.40563996 8:0.10653788 9:-0.92844153 10:-0.83618295 11:-0.97986424 12:-0.48913793 13:-0.98479863 14:-0.90799735 15:-0.67708739 16:-0.87220618 17:0.44244634 18:-0.71734857 19:-0.89083655 20:-0.91063436 21:-0.97461743 22:-0.99276062 23:-0.93862427 24:-0.88892444 25:0.096997009 26:-0.68161987 27:-0.99470435 28:0.7771553 29:-0.88387984 30:-0.11814041 31:0.13580247 32:-0.91088385 33:-0.81257772 34:-0.86802818 35:-0.97476174 
1 1:0.44798876 2:-0.68330184 3:-0.94680282 4:-0.87097771 5:-0.11724813 6:-0.34538421 7:-0.29660881 8:-0.041494276 9:-0.073446006 10:-0.85173832 11:-0.57073327 12:0.30986458 13:-0.86366549 14:-0.62637886 15:-0.30283279 16:-0.63636913 17:0.17387265 18:0.061237302 19:-0.53921705 20:-0.54824867 21:-0.57770291 22:-0.86237049 23:-0.47849087 24:-0.52060604 25:0.11292226 26:-0.17469695 27:-0.93371076 28:0.12449433 29:-0.95700153 30:-0.23588052 31:0.086419753 32:-0.6484856 33:-0.62168777 34:-0.64312081 35:-0.90815141 
1 1:0.65722673 2:-0.82989164 3:-0.93614173 4:-0.75706465 5:0.43785202 6:-0.40407026 7:-0.66978309 8:0.11936794 9:0.51095523 10:-0.97767619 11:-0.14560374 12:0.63175173 13:-0.47332097 14:-0.049923962 15:-0.27975371 16:-0.42920946 17:0.29688735 18:0.53003419 19:-0.039315696 20:-0.28053019 21:-0.18823342 22:-0.46902146 23:0.068171277 24:-0.41047219 25:-0.12055523 26:0.23209037 27:-0.77420871 28:0.072236914 29:-0.98579817 30:-0.10119777 31:-0.55555556 32:-0.33833218 33:-0.49633754 34:-0.33926701 35:-0.74303507 
1 1:-0.14165077 2:-0.81876508 3:-0.74281261 4:-0.69866006 5:-0.94575986 6:-0.24362975 7:0.38824568 8:-0.072166142 9:-0.82022021 10:-0.45271055 11:-0.98445464 12:-0.56069687 13:-0.98670264 14:-0.93081971 15:-0.23805837 16:-0.77355148 17:0.3478003 18:-0.71955914 19:-0.91617624 20:-0.73788139 21:-0.98313812 22:-0.987196 23:-0.93880877 24:-0.9319191 25:0.039568914 26:-0.37756985 27:-0.99345249 28:0.36312367 29:-0.80236376 30:-0.0022554754 31:0.037037037 32:-0.89939306 33:-0.83308937 34:-0.88578996 35:-0.98188098 
1 1:0.73924991 2:-0.75222431 3:-0.9578911 4:-0.83026304 5:-0.15464574 6:-0.395299 7:-0.031226957 8:-0.0023881193 9:-0.27771596 10:-0.82363816 11:-0.42150445 12:0.51645482 13:-0.88350678 14:-0.59266833 15:0.21708737 16:-0.37933218 17:0.48040349 18:0.16531388 19:-0.46570699 20:-0.28917709 21:-0.27730766 22:-0.88218752 23:-0.44731098 24:-0.33849411 25:0.09986475 26:0.15762646 27:-0.86469113 28:0.3266075 29:-0.95958928 30:-0.26149643 31:-0.43209877 32:-0.49126282 33:-0.83872074 34:-0.50421097 35:-0.85027584 
1 1:0.40341119 2:-0.8381896 3:-0.8293537 4:-0.880189 5:-0.62232469 6:-0.47622768 7:-0.013978501 8:0.02111239 9:-0.58452158 10:-0.79214456 11:-0.88648694 12:-0.04172537 13:-0.92432621 14:-0.75974707 15:0.71679217 16:-0.58234836 17:0.40152374 18:-0.33188101 19:-0.77313192 20:-0.43802057 21:-0.84295009 22:-0.92575639 23:-0.79053535 24:-0.75438862 25:-0.065036856 26:-0.096330475 27:-0.98456695 28:-0.23528543 29:-0.91360779 30:-0.13118852 31:-0.50617284 32:-0.83803079 33:-0.72866605 34:-0.85064996 35:-0.97823345 
1 1:0.72857553 2:-0.71275271 3:-0.97447919 4:-0.71042892 5:-0.73660788 6:-0.68685505 7:0.013776858 8:0.040356767 9:-0.58482097 10:-0.75714191 11:-0.90097573 12:-0.022767495 13:-0.86486654 14:-0.51003238 15:0.35813097 16:-0.16696355 17:-0.42298053 18:-0.07938654 19:-0.58682819 20:-0.43961891 21:-0.8740158 22:-0.86652677 23:-0.48076625 24:-0.58095876 25:0.062712472 26:-0.093743902 27:-0.94380654 28:0.17882469 29:-0.88447734 30:-0.25582451 31:-0.50617284 32:-0.67755528 33:-0.73717521 34:-0.70283314 35:-0.94100496 
1 1:0.61463191 2:-0.36754294 3:-0.91853565 4:-0.73029986 5:-0.41752582 6:-0.22402943 7:-0.04837976 8:0.091228098 9:-0.48346464 10:-0.82267645 11:-0.84410058 12:-0.098073376 13:-0.92112881 14:-0.71505328 15:0.5381008 16:-0.24355297 17:0.30715525 18:-0.27793433 19:-0.72739767 20:-0.78119948 21:-0.84804985 22:-0.92075738 23:-0.70160819 24:-0.80886865 25:0.48343603 26:-0.35462381 27:-0.96431138 28:0.39541416 29:-0.95255039 30:-0.23841599 31:0.086419753 32:-0.74607355 33:-0.82004696 34:-0.74987049 35:-0.94995972 
1 1:0.14049261 2:-0.88586173 3:-0.94392431 4:-0.78342336 5:-0.5467777 6:-0.49674233 7:0.07242 8:-0.39055372 9:-0.35783369 10:-0.70581375 11:-0.91773931 12:-0.13176292 13:-0.98191722 14:-0.86553824 15:0.28972279 16:-0.5303258 17:0.33375676 18:-0.59544168 19:-0.87449076 20:-0.30635147 21:-0.91130025 22:-0.98188834 23:-0.87810953 24:-0.92520387 25:-0.23906983 26:-0.010317418 27:-0.98676706 28:-0.36273571 29:-0.97299679 30:-0.10454447 31:-0.35802469 32:-0.85108123 33:-0.75600253 34:-0.83749608 35:-0.97092967 
1 1:0.43456319 2:-0.66368951 3:-0.96000766 4:-0.57780302 5:-0.7221109 6:-0.61282056 7:0.16256943 8:0.060292292 9:-0.69929578 10:-0.55445251 11:-0.87107007 12:-0.0077659673 13:-0.8926877 14:-0.58463298 15:-0.076712532 16:-0.54977062 17:0.58329968 18:-0.14443936 19:-0.57892366 20:-0.67787422 21:-0.87737608 22:-0.90355897 23:-0.61378802 24:-0.68304707 25:-0.099977153 26:-0.017371297 27:-0.93509036 28:0.7444327 29:-0.94713985 30:-0.1606774 31:0.30864198 32:-0.65232081 33:-0.54947564 34:-0.65315227 35:-0.91445001 
1 1:0.39978752 2:-0.79367724 3:-0.84347164 4:-0.93527188 5:-0.59624611 6:-0.39915452 7:-0.070403735 8:0.042641999 9:-0.73308803 10:-0.85202311 11:-0.86208915 12:-0.052107226 13:-0.92825163 14:-0.94199315 15:-0.40922834 16:-0.64981073 17:0.66107493 18:-0.34670549 19:-0.82232118 20:-0.88632478 21:-0.84642362 22:-0.93576022 23:-0.86728576 24:-0.60672066 25:0.021910566 26:-0.56802929 27:-0.98796043 28:0.13558123 29:-0.8797997 30:-0.27753344 31:0.30864198 32:-0.85861258 33:-0.7662668 34:-0.87553402 35:-0.98388521 
1 1:0.31314123 2:-0.74840736 3:-0.72865021 4:-0.8770732 5:-0.24330142 6:-0.64260872 7:-0.017459458 8:-0.070841421 9:-0.23044178 10:-0.75558896 11:-0.78369088 12:0.1609165 13:-0.89918948 14:-0.62433435 15:0.61456632 16:-0.61607429 17:0.65489071 18:-0.092727828 19:-0.64615276 20:-0.54647731 21:-0.7659132 22:-0.89977999 23:-0.59361646 24:-0.61814168 25:0.090911492 26:-0.060449812 27:-0.96873867 28:0.21466798 29:-0.93862529 30:-0.14788613 31:0.25925926 32:-0.76329652 33:-0.73865547 34:-0.76725999 35:-0.9552979 
1 1:0.58443465 2:-0.74793416 3:-0.8948346 4:-0.76845653 5:-0.16604788 6:-0.65293206 7:-0.11445247 8:-0.098432639 9:-0.11405792 10:-0.83625896 11:-0.63428479 12:0.12346205 13:-0.87400296 14:-0.68638266 15:0.21684881 16:-0.54599169 17:0.1133355 18:-0.058732751 19:-0.58703851 20:-0.33061187 21:-0.65033617 22:-0.87281815 23:-0.54324899 24:-0.72767992 25:-0.027775161 26:-0.10368322 27:-0.92516921 28:0.38548976 29:-0.90899377 30:-0.1332769 31:-0.45679012 32:-0.6255786 33:-0.71598607 34:-0.6417094 35:-0.91539537 
1 1:0.59097781 2:-0.72683567 3:-0.91710163 4:-0.85890434 5:-0.60102996 6:-0.62785883 7:-0.23928129 8:0.026635126 9:-0.092113008 10:-0.85396477 11:-0.77803694 12:0.16985122 13:-0.63215647 14:-0.29640556 15:-0.43285309 16:-0.49588138 17:-0.16083515 18:0.23170754 19:-0.28256161 20:-0.049551948 21:-0.65882528 22:-0.63870658 23:-0.20113158 24:-0.58653493 25:0.084807656 26:0.1258901 27:-0.86925425 28:-0.072345694 29:-0.97439541 30:-0.20325042 31:-0.45679012 32:-0.50017529 33:-0.51120648 34:-0.51531851 35:-0.85718847 
1 1:0.75967684 2:-0.73527025 3:-0.81756223 4:-0.24577503 5:-0.77519191 6:-0.44845512 7:-0.122953 8:0.046422114 9:-0.51355321 10:-0.84676543 11:-0.93933152 12:-0.23082133 13:-0.57778532 14:-0.31637507 15:-0.20240067 16:-0.3128092 17:-0.84974941 18:0.22523328 19:-0.32254378 20:-0.34806479 21:-0.93956717 22:-0.5905373 23:-0.46791305 24:-0.17543064 25:0.13368761 26:0.02696999 27:-0.87372521 28:0.26383371 29:-0.89685214 30:-0.15280618 31:-0.80246914 32:-0.50905975 33:-0.63050956 34:-0.53402911 35:-0.87139221 
1 1:0.76712227 2:-0.51584975 3:-0.91651408 4:-0.54761548 5:-0.58391228 6:-0.41896479 7:0.043025906 8:0.17815312 9:-0.61930477 10:-0.7260501 11:-0.80083316 12:0.098611508 13:-0.68089775 14:-0.18880753 15:-0.040610571 16:-0.14473877 17:-0.3994817 18:0.29804198 19:-0.26742517 20:-0.51624659 21:-0.81062747 22:-0.67720367 23:-0.084714522 24:-0.36691228 25:0.42303548 26:0.072820085 27:-0.80450976 28:-0.11181337 29:-0.86710072 30:-0.31431339 31:0.16049383 32:-0.38540075 33:-0.6518319 34:-0.41184533 35:-0.80566153 
1 1:0.22843023 2:-0.82978031 3:-0.97205243 4:-0.81456773 5:-0.31672655 6:-0.64267994 7:-0.0073981939 8:-0.097907958 9:-0.19050086 10:-0.81621583 11:-0.74608235 12:0.20673739 13:-0.93904854 14:-0.71353179 15:0.6214592 16:-0.70098883 17:0.2926042 18:-0.29301541 19:-0.75133802 20:-0.56865609 21:-0.69423181 22:-0.9388553 23:-0.66095756 24:-0.70142507 25:-0.036701436 26:-0.21601241 27:-0.9739433 28:0.4601127 29:-0.94809573 30:-0.35230974 31:-0.43209877 32:-0.78518245 33:-0.80278331 34:-0.78976417 35:-0.96186788 
1 1:0.25953943 2:-0.81970685 3:-0.93837951 4:-0.78313674 5:-0.24203197 6:-0.31757396 7:0.15672899 8:-0.097887784 9:-0.44568053 10:-0.60665788 11:-0.70146494 12:0.054890499 13:-0.95876764 14:-0.79165083 15:0.2101557 16:-0.72802769 17:0.49268313 18:-0.52966392 19:-0.81630597 20:-0.70697717 21:-0.71355772 22:-0.95837461 23:-0.84520771 24:-0.92480563 25:-0.039600245 26:-0.27536051 27:-0.97275108 28:-0.038704924 29:-0.84898829 30:-0.33646359 31:0.13580247 32:-0.77998964 33:-0.78612384 34:-0.78065437 35:-0.95843173 
1 1:0.071453592 2:-0.81283144 3:-0.97469414 4:-0.75083594 5:-0.73677515 6:-0.55260923 7:0.23819553 8:-0.024040827 9:-0.82490737 10:-0.59516784 11:-0.93519549 12:-0.14569003 13:-0.98394707 14:-0.84899202 15:-0.026908152 16:-0.67640053 17:0.31150185 18:-0.32388649 19:-0.79285376 20:-0.74892671 21:-0.92613255 22:-0.98437666 23:-0.69527384 24:-0.70234063 25:-0.0030835503 26:-0.34923666 27:-0.97735385 28:0.42319415 29:-0.94869388 30:-0.15012552 31:0.18518519 32:-0.80072859 33:-0.84536254 34:-0.78100338 35:-0.95414005 
0.5940088215168211 1:0.76530827 2:-0.28038814 3:-0.94219442 4:-0.25086 5:-0.57108866 6:-0.69295794 7:0.067914903 8:-0.030694269 9:-0.56893479 10:-0.77777282 11:-0.83661413 12:0.004213407 13:-0.61038372 14:-0.19199323 15:-0.25810819 16:-0.11445567 17:-0.15466139 18:0.24512672 19:-0.21038931 20:-0.70947225 21:-0.84476827 22:-0.60705839 23:-0.076166293 24:-0.5992854 25:0.65971788 26:-0.082278888 27:-0.71859416 28:-0.064298456 29:-0.94989795 30:-0.2473758 31:0.086419753 32:-0.25952694 33:-0.30080218 34:-0.28122777 35:-0.71633591 
1 1:0.26612683 2:-0.59178317 3:-0.88889913 4:-0.74978297 5:-0.43415477 6:-0.57805266 7:-0.32850397 8:-0.068839452 9:-0.61207275 10:-0.94522497 11:-0.76533317 12:0.085880143 13:-0.95713971 14:-0.802539 15:-0.35915041 16:-0.60714417 17:0.0020582749 18:-0.18273448 19:-0.73327661 20:-0.79733429 21:-0.76106325 22:-0.9584164 23:-0.67786968 24:-0.40360573 25:0.1952327 26:-0.40894178 27:-0.96401383 28:-0.057954669 29:-0.90049592 30:-0.067499951 31:-0.97530864 32:-0.7449553 33:-0.7300125 34:-0.74577047 35:-0.94790332 
1 1:0.63050175 2:-0.75356394 3:-0.79491324 4:-0.87324549 5:-0.36029981 6:-0.41999329 7:0.097077573 8:-0.0098026989 9:0.16626836 10:-0.71025413 11:-0.4931346 12:0.31767568 13:-0.65904072 14:-0.70435529 15:-0.01454228 16:-0.56165617 17:-0.97633671 18:0.10909913 19:-0.50382484 20:0.04897775 21:-0.44517569 22:-0.65507852 23:-0.49115957 24:-0.49229829 25:0.067392278 26:0.24811655 27:-0.90555039 28:0.34790753 29:-0.89698738 30:-0.32561191 31:-0.13580247 32:-0.57747356 33:-0.55801667 34:-0.59967616 35:-0.90034444 
1 1:0.5907606 2:-0.39373515 3:-0.94264622 4:-0.62560508 5:-0.83308605 6:-0.6517033 7:0.14732411 8:-0.0054663584 9:-0.85409817 10:-0.69110121 11:-0.9177582 12:-0.11508251 13:-0.89415061 14:-0.56114496 15:-0.0032680761 16:-0.38769463 17:0.34672617 18:-0.11176192 19:-0.58715316 20:-0.83431115 21:-0.90959858 22:-0.89318318 23:-0.48740816 24:-0.74923415 25:0.45926292 26:-0.3584628 27:-0.92352621 28:-0.15781359 29:-0.91957486 30:-0.15195208 31:0.55555556 32:-0.62132485 33:-0.77045388 34:-0.6362517 35:-0.91274984 
0.08430541295994062 1:0.38009524 2:-0.58700286 3:-0.97135806 4:-0.6307117 5:-0.7789569 6:-0.61633649 7:0.34074593 8:0.09989058 9:-0.80139522 10:-0.43666025 11:-0.95266595 12:-0.23633279 13:-0.96160682 14:-0.80776912 15:0.2694506 16:-0.60422098 17:-0.42526479 18:-0.33922273 19:-0.77239808 20:-0.82691313 21:-0.95083823 22:-0.98010884 23:-0.77147077 24:-0.8217974 25:0.39673344 26:-0.50479404 27:-0.97665082 28:0.44283908 29:-0.90623615 30:-0.28241443 31:0.60493827 32:-0.79743343 33:-0.86799176 34:-0.81352604 35:-0.97048632 
1 1:0.5531198 2:-0.74956808 3:-0.88075287 4:-0.85375598 5:-0.50753092 6:-0.74666531 7:-0.031761879 8:0.026941713 9:-0.62411456 10:-0.73325368 11:-0.89129523 12:-0.11369221 13:-0.98438164 14:-0.87305059 15:0.41510846 16:-0.45374006 17:-0.60470671 18:-0.5283307 19:-0.85676936 20:-0.75293411 21:-0.89375314 22:-0.9852339 23:-0.84582271 24:-0.79036636 25:0.034115887 26:-0.4175945 27:-0.98664679 28:0.52916692 29:-0.95919474 30:-0.12620583 31:-0.20987654 32:-0.85034126 33:-0.94013487 34:-0.87212086 35:-0.98400602 
1 1:0.3784901 2:-0.74132098 3:-0.87367506 4:-0.86613208 5:-0.3062656 6:-0.38467641 7:0.00034861535 8:-0.095670992 9:-0.38635039 10:-0.75391343 11:-0.61683756 12:0.15824087 13:-0.9487752 14:-0.91888551 15:0.18559845 16:-0.64232162 17:0.43471143 18:-0.17919037 19:-0.69075862 20:-0.87206171 21:-0.62174206 22:-0.97126722 23:-0.89520617 24:-0.81355182 25:0.068718031 26:-0.45094859 27:-0.93781078 28:-0.061181309 29:-0.94153138 30:-0.18560764 31:0.13580247 32:-0.66000461 33:-0.86530422 34:-0.66576488 35:-0.92115301 
0.8665309708411064 1:0.43635352 2:-0.64334561 3:-0.89378718 4:-0.75225416 5:-0.19020257 6:-0.097435271 7:-0.013587506 8:0.013020937 9:0.019747218 10:-0.74016978 11:-0.3518335 12:0.32513698 13:-0.46055764 14:-0.074172719 15:0.18830838 16:-0.59242422 17:0.4635034 18:0.38103919 19:-0.058977954 20:-0.31438056 21:-0.38422094 22:-0.45627434 23:-0.2234556 24:-0.18169272 25:0.36401131 26:0.0072162122 27:-0.73131903 28:0.32954703 29:-0.82779463 30:-0.13422805 31:-0.16049383 32:-0.27681611 33:-0.50063922 34:-0.23292992 35:-0.63187054 
0.06944956328589562 1:-0.0087779229 2:-0.67253519 3:-0.97078045 4:-0.69370401 5:-0.55967421 6:-0.60769151 7:-0.089563025 8:-0.073858297 9:-0.55198806 10:-0.78459682 11:-0.91304744 12:-0.097700068 13:-0.95821092 14:-0.76464437 15:-0.14945993 16:-0.79232593 17:-0.035735471 18:-0.40278971 19:-0.7919707 20:-0.68996054 21:-0.91695007 22:-0.95844371 23:-0.76335292 24:-0.82790049 25:0.058514027 26:-0.32077287 27:-0.98410148 28:0.5561239 29:-0.95848436 30:-0.1068563 31:-0.50617284 32:-0.83539069 33:-0.68620022 34:-0.82840297 35:-0.96975326 
1 1:0.3805969 2:-0.64381882 3:-0.93873052 4:-0.6476554 5:-0.70947389 6:-0.58825937 7:0.14886663 8:0.050282857 9:-0.76270947 10:-0.65560195 11:-0.95186764 12:-0.26199376 13:-0.96474958 14:-0.70582925 15:-0.031963309 16:-0.64699839 17:-0.279991 18:-0.38126128 19:-0.77000615 20:-0.80184312 21:-0.95142774 22:-0.96496427 23:-0.78758342 24:-0.78941425 25:0.24158604 26:-0.38750232 27:-0.97325544 28:0.67625867 29:-0.97239787 30:-0.20286632 31:0.012345679 32:-0.78217232 33:-0.78456796 34:-0.79224271 35:-0.96375899 
1 1:0.66928005 2:-0.63673015 3:-0.88517935 4:-0.55386278 5:-0.70629125 6:-0.3344895 7:-0.020818726 8:0.025638131 9:-0.58799601 10:-0.77268156 11:-0.81662532 12:0.031972917 13:-0.74074899 14:-0.58819894 15:0.44148968 16:-0.43671402 17:-0.52310738 18:0.29028025 19:-0.41742551 20:-0.65660059 21:-0.79661757 22:-0.73857325 23:-0.28274036 24:-0.38453993 25:0.15009373 26:-0.20393087 27:-0.89175166 28:0.30231928 29:-0.8320088 30:0.062079016 31:-0.35802469 32:-0.54658432 33:-0.61701166 34:-0.5683435 35:-0.88617455 
0.6934673059527635 1:0.65709846 2:-0.4831881 3:-0.9735745 4:-0.63261469 5:-0.18066009 6:-0.54958697 7:-0.14019978 8:0.15550089 9:-0.36271393 10:-0.82085156 11:-0.69842017 12:0.15750609 13:-0.80172821 14:-0.37799555 15:-0.085481281 16:-0.31984563 17:-0.25255177 18:0.34403585 19:-0.24511915 20:-0.61593476 21:-0.71290322 22:-0.8080874 23:0.054211166 24:-0.53980488 25:0.42794836 26:-0.065799201 27:-0.75145154 28:-0.41697934 29:-0.97357634 30:-0.12383533 31:-0.18518519 32:-0.3050286 33:-0.64496567 34:-0.32209412 35:-0.74190701 
1 1:0.48991275 2:-0.73160628 3:-0.95631619 4:-0.71204173 5:-0.53246739 6:-0.38358518 7:0.067405682 8:-0.047092631 9:-0.38365657 10:-0.69195538 11:-0.88619703 12:-0.22814729 13:-0.97109216 14:-0.80291937 15:0.48275293 16:-0.47254819 17:-0.53821756 18:-0.5160979 19:-0.8297031 20:-0.6215831 21:-0.89181591 22:-0.97242475 23:-0.85437102 24:-0.86773101 25:0.069051356 26:-0.25126659 27:-0.97871053 28:0.3241069 29:-0.93048153 30:-0.24850787 31:-0.18518519 32:-0.80723456 33:-0.91260575 34:-0.81983815 35:-0.9712848 
1 1:0.70396357 2:-0.71062978 3:-0.92513216 4:-0.4588561 5:-0.73983663 6:-0.336809 7:-0.17757903 8:0.07077832 9:-0.60311178 10:-0.86176285 11:-0.89985577 12:-0.077731001 13:-0.45270909 14:-0.23445237 15:0.3337297 16:-0.37492429 17:-0.79067982 18:0.13353424 19:-0.3104392 20:-0.39143243 21:-0.90484247 22:-0.47167295 23:-0.39848102 24:-0.52451276 25:0.12843126 26:0.15467051 27:-0.90344276 28:-0.016862135 29:-0.98145029 30:-0.0065202064 31:-0.25925926 32:-0.57261622 33:0.091453736 34:-0.59224114 35:-0.89600091 
1 1:0.70498112 2:-0.75481437 3:-0.91879602 4:-0.56750156 5:-0.64646836 6:-0.51927402 7:-0.29527447 8:0.093184561 9:-0.78090328 10:-0.86923349 11:-0.90177423 12:-0.073732251 13:-0.57659517 14:-0.13294029 15:0.32513061 16:-0.19412765 17:-0.16758578 18:0.26555114 19:-0.2732349 20:-0.65111267 21:-0.89962403 22:-0.5801756 23:-0.50567325 24:-0.088813379 25:0.020656231 26:-0.14518831 27:-0.88975133 28:-0.095648248 29:-0.94801712 30:-0.28948821 31:0.012345679 32:-0.54227364 33:-0.53830599 34:-0.57129634 35:-0.89077466 
1 1:0.73094844 2:-0.52932409 3:-0.83830655 4:-0.74210112 5:-0.40475522 6:-0.39987003 7:0.38750492 8:-0.059047331 9:-0.28656246 10:-0.42751075 11:-0.60019053 12:0.12849021 13:-0.27727544 14:-0.23392934 15:0.83100265 16:-0.36896029 17:0.44160139 18:0.1595106 19:-0.28681602 20:-0.58904922 21:-0.57926677 22:-0.26965051 23:-0.40832081 24:-0.71402685 25:0.45866224 26:-0.16127806 27:-0.91923405 28:0.021752394 29:-0.87164132 30:-0.20985609 31:-0.061728395 32:-0.61042301 33:-0.44959885 34:-0.6316293 35:-0.91328448 
1 1:0.60650184 2:-0.63267872 3:-0.83728003 4:-0.64333588 5:-0.74061168 6:-0.4037122 7:-0.12027045 8:-0.080710331 9:-0.64356014 10:-0.80765279 11:-0.90361541 12:-0.059880456 13:-0.82010953 14:-0.68448084 15:0.4267525 16:-0.34977447 17:-0.22937983 18:-0.17056234 19:-0.65808236 20:-0.54658418 21:-0.90214915 22:-0.83103944 23:-0.62405831 24:-0.65348112 25:0.18440203 26:-0.16298279 27:-0.9713746 28:0.15154233 29:-0.89271116 30:-0.2365028 31:-0.40740741 32:-0.774133 33:-0.78292624 34:-0.79239308 35:-0.96564948 
1 1:0.78094535 2:-0.56482936 3:-0.94468614 4:-0.68095121 5:-0.018750565 6:-0.36655078 7:-0.05397392 8:0.069575445 9:0.494666 10:-0.79313629 11:-0.48026909 12:0.44774741 13:-0.077692118 14:0.43647768 15:0.16534188 16:-0.24648597 17:0.32968833 18:0.54332532 19:0.25356768 20:0.10601277 21:-0.44986544 22:-0.076438192 23:0.21810524 24:-0.64145231 25:0.19912369 26:0.37634826 27:-0.47805217 28:-0.17847209 29:-0.90904177 30:-0.07475036 31:0.037037037 32:0.014070746 33:0.23574773 34:-0.0059335051 35:-0.48051308 
1 1:0.74513011 2:-0.68143162 3:-0.91548406 4:-0.70879391 5:-0.36505301 6:-0.56435728 7:-0.17785236 8:0.14592791 9:-0.31215024 10:-0.78487056 11:-0.84086414 12:0.075779066 13:-0.16223122 14:-0.058244579 15:0.3360992 16:-0.25854093 17:0.54423506 18:0.44841991 19:-0.10439415 20:-0.56932416 21:-0.84141556 22:-0.1548455 23:-0.085883009 24:-0.0059735236 25:0.11862717 26:-0.058766436 27:-0.9010911 28:-0.19473637 29:-0.95154817 30:-0.22668917 31:-0.58024691 32:-0.56725851 33:-0.18526426 34:-0.57994046 35:-0.88751054 
1 1:0.18032236 2:-0.85341019 3:-0.80855012 4:-0.76156978 5:-0.76281816 6:-0.52562094 7:0.17367361 8:-0.20384839 9:-0.74945668 10:-0.73355316 11:-0.94295038 12:-0.36352024 13:-0.96113968 14:-0.91898061 15:0.73237304 16:-0.64951265 17:0.75820508 18:-0.56702323 19:-0.86417162 20:-0.75160619 21:-0.94135029 22:-0.96348696 23:-0.92337259 24:-0.94174718 25:-0.12236717 26:-0.31509937 27:-0.9908975 28:0.38774076 29:-0.79838503 30:-0.32717885 31:-0.5308642 32:-0.87890185 33:-0.93717548 34:-0.88544405 35:-0.98426145 
1 1:0.31934513 2:-0.52998634 3:-0.94403283 4:-0.73102284 5:-0.73187679 6:-0.37721512 7:0.35788834 8:-0.0059936827 9:-0.77047662 10:-0.37613728 11:-0.92548043 12:-0.25096328 13:-0.94551821 14:-0.82678776 15:0.23086658 16:-0.5727759 17:0.23999045 18:-0.22177117 19:-0.7431963 20:-0.87618566 21:-0.92859585 22:-0.94490355 23:-0.79588575 24:-0.57567559 25:0.34902786 26:-0.34281285 27:-0.97049192 28:0.006239399 29:-0.91174606 30:-0.071444087 31:0.18518519 32:-0.77045095 33:-0.77947605 34:-0.76520666 35:-0.95248025 
1 1:0.65451812 2:-0.72287618 3:-0.79526942 4:-0.71295321 5:0.11632064 6:-0.59560899 7:-0.021726427 8:-0.0072035643 9:0.12511438 10:-0.76417769 11:-0.50389115 12:0.44952125 13:-0.5587407 14:-0.21162987 15:0.10203001 16:-0.46331957 17:-0.7376608 18:0.24021128 19:-0.24366717 20:-0.20053865 21:-0.52466067 22:-0.55623935 23:-0.16693827 24:-0.01922651 25:0.13054063 26:0.16944699 27:-0.85434725 28:0.32715079 29:-0.93956349 30:-0.20540473 31:0.33333333 32:-0.47159988 33:-0.55617516 34:-0.47963706 35:-0.83449054 
1 1:0.43094385 2:-0.87379858 3:-0.92669941 4:-0.69408114 5:-0.67170496 6:-0.42658443 7:0.13168042 8:-0.10392518 9:-0.83019626 10:-0.69855257 11:-0.89680599 12:-0.17409783 13:-0.86677872 14:-0.82355459 15:-0.38634015 16:-0.68748403 17:0.10516283 18:-0.37934305 19:-0.72926921 20:-0.48804682 21:-0.90106949 22:-0.86639634 23:-0.91734572 24:-0.77208836 25:-0.11197094 26:0.20053296 27:-0.96104696 28:0.27895723 29:-0.91276589 30:-0.30874537 31:-0.38271605 32:-0.73404788 33:-0.42825072 34:-0.74766463 35:-0.95187362 
1 1:-0.0081363127 2:-0.64815894 3:-0.85807748 4:-0.61688896 5:-0.82948871 6:-0.73394226 7:0.21076892 8:-0.052784146 9:-0.79123454 10:-0.6077458 11:-0.97782803 12:-0.43078135 13:-0.98229626 14:-0.86444466 15:-0.22983638 16:-0.75223123 17:0.6010558 18:-0.61906699 19:-0.88556568 20:-0.671103 21:-0.97847122 22:-0.98367251 23:-0.88321393 24:-0.92312749 25:0.11872607 26:-0.19865001 27:-0.99129033 28:0.39916413 29:-0.97058088 30:-0.18876936 31:-0.30864198 32:-0.8818483 33:-0.86241801 34:-0.87862373 35:-0.98167691 
1 1:-0.11143917 2:-0.72537896 3:-0.96753134 4:-0.82465189 5:-0.88117494 6:-0.43450843 7:0.16127286 8:-0.0025122712 9:-0.91412571 10:-0.67794114 11:-0.982543 12:-0.45911459 13:-0.9873026 14:-0.91921835 15:-0.32196349 16:-0.78211996 17:0.17309051 18:-0.68870402 19:-0.8921787 20:-0.81604464 21:-0.97917086 22:-0.9949037 23:-0.94003875 24:-0.94226019 25:0.18197233 26:-0.39632411 27:-0.99536338 28:0.53316924 29:-0.96855602 30:-0.23944188 31:-0.16049383 32:-0.91747101 33:-0.94883721 34:-0.91856566 35:-0.98939364 
1 1:0.21749306 2:-0.70995092 3:-0.85482937 4:-0.8545622 5:-0.64723739 6:-0.55789392 7:-0.10470878 8:0.068212949 9:-0.61592045 10:-0.81669459 11:-0.92265262 12:-0.15767981 13:-0.90473931 14:-0.6913275 15:0.020920228 16:-0.62638743 17:0.44425917 18:-0.42142175 19:-0.76386761 20:-0.73530689 21:-0.92647933 22:-0.90369085 23:-0.79416376 24:-0.7886621 25:0.11411644 26:-0.3240774 27:-0.98787877 28:0.12443872 29:-0.92275117 30:-0.19802411 31:-0.72839506 32:-0.85808582 33:-0.74497209 34:-0.86168273 35:-0.97913685 
1 1:0.1781283 2:-0.76191519 3:-0.82446054 4:-0.82312214 5:-0.62463559 6:-0.38966102 7:-0.029626215 8:-0.080413602 9:-0.66668007 10:-0.71423913 11:-0.94624671 12:-0.22246681 13:-0.97377956 14:-0.87661659 15:0.50504495 16:-0.69493991 17:0.42257092 18:-0.48091203 19:-0.84011689 20:-0.66741666 21:-0.92898513 22:-0.9860957 23:-0.84594571 24:-0.80941121 25:0.064960967 26:-0.28741186 27:-0.98793527 28:0.44581764 29:-0.93790649 30:-0.21301091 31:-0.11111111 32:-0.85845012 33:-0.86932084 34:-0.86520043 35:-0.98034433 
1 1:0.60986485 2:-0.56224624 3:-0.95131239 4:-0.76552295 5:0.15667083 6:-0.65666803 7:-0.42929189 8:0.03665275 9:0.10420489 10:-0.95759041 11:-0.59888894 12:0.41908192 13:-0.81003128 14:-0.36358882 15:-0.12462806 16:-0.46112592 17:-0.10206395 18:0.26696722 19:-0.35001209 20:-0.49216253 21:-0.61781669 22:-0.80782394 23:-0.14510633 24:-0.20751819 25:0.28222568 26:-0.11642893 27:-0.87661309 28:0.47606991 29:-0.98440378 30:-0.13197825 31:-0.77777778 32:-0.51488212 33:-0.37196364 34:-0.52151578 35:-0.85626122 
0.9394692161722596 1:0.094215082 2:-0.80029804 3:-0.56942181 4:-0.81016786 5:-0.40413553 6:-0.087160809 7:-0.13848103 8:-0.39428455 9:-0.25159255 10:-0.82777948 11:-0.71143585 12:0.0003541225 13:-0.93334163 14:-0.82374478 15:0.58116242 16:-0.77114078 17:0.87052654 18:-0.37532966 19:-0.80734751 20:-0.46836836 21:-0.69065161 22:-0.93261745 23:-0.83020203 24:-0.75089403 25:0.10316224 26:-0.21816492 27:-0.98413392 28:0.22834046 29:-0.87323022 30:-0.40694599 31:-0.77777778 32:-0.83557342 33:-0.8556514 34:-0.83053765 35:-0.9706213 
1 1:0.30464212 2:-0.73691626 3:-0.93163954 4:-0.83922016 5:-0.54035412 6:-0.62901331 7:0.025536529 8:-0.012656528 9:-0.67079899 10:-0.7175008 11:-0.90417466 12:-0.13537795 13:-0.97119265 14:-0.81627996 15:-0.122147 16:-0.67012535 17:-0.3004271 18:-0.30723438 19:-0.7790542 20:-0.39908361 21:-0.90115495 22:-0.97354409 23:-0.7643369 24:-0.77885405 25:-0.098943138 26:-0.080750002 27:-0.98301596 28:0.58322098 29:-0.90818584 30:-0.30078532 31:-0.5308642 32:-0.82937893 33:-0.80813923 34:-0.83809801 35:-0.97482193 
1 1:0.62652204 2:-0.60288244 3:-0.95494966 4:-0.63016989 5:-0.43192461 6:-0.69102878 7:-0.15521379 8:-0.034442248 9:-0.1499313 10:-0.86681362 11:-0.73856226 12:0.27843479 13:-0.53252806 14:-0.31751619 15:0.14981276 16:-0.42332062 17:0.32739997 18:0.75835667 19:-0.040762335 20:0.020713713 21:-0.75057855 22:-0.57074154 23:0.43193627 24:0.24267319 25:0.34890174 26:0.25616103 27:-0.80570761 28:0.11939645 29:-0.95814742 30:-0.31082869 31:-0.60493827 32:-0.38733385 33:-0.41620255 34:-0.39570591 35:-0.78494746 
1 1:0.32426881 2:-0.73992896 3:-0.86676594 4:-0.80019924 5:-0.44484137 6:-0.29867218 7:0.099084283 8:-0.22819175 9:-0.23048939 10:-0.75526639 11:-0.67452659 12:0.137611 13:-0.8024416 14:-0.69023392 15:0.11111968 16:-0.64288562 17:0.62700426 18:-0.26803263 19:-0.6513749 20:-0.36975488 21:-0.64337827 22:-0.80804414 23:-0.77196273 24:-0.79221754 25:0.10624844 26:0.0082384443 27:-0.95535109 28:0.37854191 29:-0.8423988 30:-0.39874886 31:-0.28395062 32:-0.71421114 33:-0.41201914 34:-0.71192435 35:-0.93566782 
1 1:0.81110992 2:-0.80251528 3:-0.95901263 4:-0.82772509 5:0.15641641 6:-0.40391567 7:-0.10887004 8:0.033636309 9:0.18987925 10:-0.8047606 11:-0.522235 12:0.49102836 13:-0.27848926 14:-0.30705591 15:-0.092621859 16:-0.23329505 17:-0.06954421 18:0.57903356 19:-0.1461421 20:-0.073245985 21:-0.42279731 22:-0.32940388 23:-0.058270072 24:-0.07510217 25:-0.13072408 26:0.36789425 27:-0.88878969 28:-0.20165187 29:-0.95411592 30:-0.25037256 31:-0.13580247 32:-0.54021525 33:-0.31099321 34:-0.56944951 35:-0.89004496 
1 1:0.42242006 2:-0.47200734 3:-0.93658053 4:-0.82675535 5:-0.054083567 6:-0.50027507 7:0.043501827 8:-0.18750521 9:-0.11026433 10:-0.74961568 11:-0.58932798 12:0.10616257 13:-0.98530443 14:-0.86477749 15:-0.1717987 16:-0.61003796 17:-0.15386893 18:-0.53537506 19:-0.8254418 20:-0.66466225 21:-0.60489137 22:-0.98553229 23:-0.87804803 24:-0.84313518 25:0.3246931 26:-0.25812208 27:-0.96120525 28:0.26584391 29:-0.88514581 30:-0.19397457 31:-0.11111111 32:-0.73461913 33:-0.81857389 34:-0.73470585 35:-0.94411516 
1 1:0.5372713 2:-0.70252671 3:-0.8929162 4:-0.37781693 5:-0.74120902 6:-0.41378871 7:-0.29134731 8:0.07392804 9:-0.58648749 10:-0.86611273 11:-0.95690953 12:-0.27520616 13:-0.72380748 14:-0.1462534 15:0.075873665 16:-0.35879822 17:-0.77436316 18:0.32307569 19:-0.20671668 20:-0.48760752 21:-0.9589247 22:-0.72664584 23:0.066695407 24:-0.31621472 25:0.092441969 26:-0.10845568 27:-0.79263437 28:-0.038746128 29:-0.93055827 30:-0.22461832 31:-0.086419753 32:-0.36654721 33:-0.59001121 34:-0.38759658 35:-0.78745245 
1 1:0.17789686 2:-0.63637837 3:-0.8554018 4:-0.6574076 5:-0.86168575 6:-0.65450101 7:0.043919305 8:-0.042898155 9:-0.89274329 10:-0.78969612 11:-0.98037506 12:-0.48039868 13:-0.97309466 14:-0.86482504 15:-0.21214406 16:-0.75803049 17:0.047024651 18:-0.67511343 19:-0.86598965 20:-0.74593716 21:-0.98114886 22:-0.97740629 23:-0.91992866 24:-0.8904139 25:0.20155302 26:-0.25696018 27:-0.98791964 28:0.60872649 29:-0.86948226 30:-0.12176953 31:-0.061728395 32:-0.85834923 33:-0.640661 34:-0.86821592 35:-0.98141805 
1 1:0.42088362 2:-0.77274828 3:-0.89854737 4:-0.69363576 5:-0.66905852 6:-0.50434195 7:0.11341185 8:0.019371794 9:-0.58080365 10:-0.63750228 11:-0.71563426 12:0.16188646 13:-0.83469839 14:-0.84176495 15:0.16499536 16:-0.54716399 17:0.13524015 18:-0.13920993 19:-0.62455656 20:-0.40141194 21:-0.72969109 22:-0.83786146 23:-0.75222165 24:-0.52353115 25:0.042870981 26:-0.030626053 27:-0.95643331 28:0.18219061 29:-0.90703218 30:-0.26305872 31:-0.25925926 32:-0.71787846 33:-0.75571035 34:-0.71508782 35:-0.93663076 
1 1:0.5328844 2:-0.38354642 3:-0.6658195 4:-0.59480602 5:-0.577666 6:-0.46544565 7:-0.1805435 8:0.0070736265 9:-0.5185366 10:-0.89844571 11:-0.81927529 12:-0.0021934604 13:-0.91156024 14:-0.78323508 15:0.24958128 16:-0.40667586 17:0.40003254 18:-0.18713418 19:-0.70385766 20:-0.62380389 21:-0.77727116 22:-0.91093757 23:-0.68604901 24:-0.84279867 25:0.47956052 26:-0.18371554 27:-0.95182759 28:0.26395245 29:-0.88835835 30:0.16744652 31:-0.25925926 32:-0.70256827 33:-0.89216429 34:-0.70518711 35:-0.93475546 
1 1:0.6292252 2:-0.75201049 3:-0.97637923 4:-0.88609265 5:-0.13620992 6:-0.45065029 7:0.14654045 8:0.14450245 9:-0.18214748 10:-0.66028295 11:-0.50504777 12:0.39873148 13:-0.88334277 14:-0.58268354 15:0.58604635 16:-0.34700447 17:0.2944345 18:-0.27393944 19:-0.65087391 20:-0.65569965 21:-0.52854244 22:-0.88277369 23:-0.70253068 24:-0.80471587 25:0.09095865 26:-0.013368896 27:-0.94852577 28:0.33729249 29:-0.93971959 30:-0.16100685 31:-0.28395062 32:-0.69203773 33:-0.86806321 34:-0.69641225 35:-0.93215302 
1 1:0.49439879 2:-0.58892913 3:-0.95875376 4:-0.6906596 5:-0.65444799 6:-0.63235804 7:-0.22622874 8:-0.029340794 9:-0.61273143 10:-0.92236637 11:-0.9362149 12:-0.15309742 13:-0.76775627 14:-0.31162046 15:0.048505725 16:-0.47055782 17:0.14784397 18:0.020757803 19:-0.50715287 20:-0.65479754 21:-0.93939989 22:-0.76730271 23:-0.37369705 24:-0.61821293 25:0.31908807 26:-0.26294091 27:-0.95556243 28:-0.071458837 29:-0.88137367 30:-0.22552504 31:-0.87654321 32:-0.71492379 33:-0.23042978 34:-0.73228325 35:-0.94815208 
0.5991348642426219 1:0.26961456 2:-0.49102 3:-0.94924838 4:-0.48996392 5:-0.8010701 6:-0.19514881 7:-0.12654816 8:0.06281909 9:-0.61517802 10:-0.86409361 11:-0.94306836 12:-0.20357123 13:0.094905057 14:-0.013693436 15:-0.16607991 16:-0.69211398 17:0.022835657 18:0.58938515 19:0.13312825 20:-0.60339015 21:-0.93339845 22:0.090951296 23:0.03078009 24:-0.33272412 25:0.3943681 26:-0.076994514 27:-0.78582184 28:0.15111769 29:-0.88084817 30:-0.26508804 31:-0.80246914 32:-0.35597461 33:0.87543764 34:-0.2933589 35:-0.66841663 
1 1:0.67789565 2:-0.27671757 3:-0.93168935 4:-0.5790101 5:-0.66573899 6:-0.65249822 7:-0.033897766 8:0.026574485 9:-0.6635428 10:-0.79632928 11:-0.90760338 12:-0.081646374 13:-0.84625056 14:-0.41793461 15:0.16348212 16:-0.32206583 17:-0.012194532 18:0.099398513 19:-0.4898189 20:-0.76690797 21:-0.91209442 22:-0.84443457 23:-0.31090682 24:-0.6133045 25:0.44946118 26:-0.302435 27:-0.92540024 28:-0.025666826 29:-0.9895518 30:-0.19839965 31:-0.45679012 32:-0.62618046 33:-0.753405 34:-0.6442844 35:-0.91712926 
1 1:0.15469463 2:-0.88018785 3:-0.88206272 4:-0.92634336 5:-0.52510471 6:-0.56223122 7:-0.048129787 8:-0.10246283 9:-0.35090671 10:-0.84669493 11:-0.82280286 12:-0.016107725 13:-0.96859435 14:-0.81751617 15:0.42194833 16:-0.66316827 17:0.64818602 18:-0.29901702 19:-0.79493697 20:-0.53726828 21:-0.74537655 22:-0.96950826 23:-0.74834724 24:-0.7651688 25:-0.13518988 26:-0.078395123 27:-0.98458587 28:0.11649285 29:-0.8290581 30:-0.17728454 31:-0.67901235 32:-0.83813892 33:-0.84863155 34:-0.82911341 35:-0.96958268 
1 1:0.30854614 2:-0.7870177 3:-0.86432276 4:-0.74751937 5:-0.56525167 6:-0.41192263 7:-0.1731459 8:-0.19912173 9:-0.80104225 10:-0.83913944 11:-0.8320295 12:-0.051288483 13:-0.82093199 14:-0.75784521 15:0.35829165 16:-0.65622463 17:-0.82560319 18:-0.13019454 19:-0.69027967 20:-0.61538778 21:-0.84041262 22:-0.82179785 23:-0.78346299 24:-0.58945122 25:0.028469275 26:-0.29542064 27:-0.9762374 28:0.32935034 29:-0.91609846 30:-0.32051198 31:-0.80246914 32:-0.79551871 33:-0.70998811 34:-0.80715952 35:-0.96797601 
1 1:0.56817686 2:-0.62251292 3:-0.92784675 4:-0.69137918 5:-0.48290362 6:-0.62956806 7:0.0011208826 8:0.043864783 9:-0.38069671 10:-0.74857081 11:-0.74577382 12:0.14642397 13:-0.81263325 14:-0.66184864 15:0.24467088 16:-0.41562446 17:-0.29928247 18:-0.05879871 19:-0.57678852 20:-0.61805517 21:-0.75762962 22:-0.81166714 23:-0.58187015 24:-0.50250292 25:0.25396006 26:-0.17001723 27:-0.94197688 28:-0.035788019 29:-0.94086721 30:-0.33905758 31:0.18518519 32:-0.6721045 33:-0.59790229 34:-0.68167124 35:-0.92839259 
1 1:0.5372285 2:-0.7767362 3:-0.90609791 4:-0.78521623 5:-0.27499812 6:-0.3399225 7:0.061459862 8:-0.17176738 9:-0.19926265 10:-0.72653794 11:-0.58859284 12:0.1603824 13:-0.94512598 14:-0.81551921 15:0.7000472 16:-0.50576128 17:0.50024779 18:-0.4297475 19:-0.7666905 20:-0.60183825 21:-0.60890629 22:-0.94781101 23:-0.81445836 24:-0.90975529 25:-0.11511792 26:-0.28002087 27:-0.94914768 28:0.54467288 29:-0.8797122 30:-0.29254649 31:-0.13580247 32:-0.69399488 33:-0.86745533 34:-0.70172599 35:-0.93507641 
1 1:0.76125041 2:-0.81882259 3:-0.9340228 4:-0.69884273 5:-0.47568854 6:-0.66774544 7:0.023431707 8:0.04091962 9:-0.057861096 10:-0.76209074 11:-0.84398137 12:0.040899742 13:-0.63331012 14:-0.18628757 15:0.37268769 16:-0.26264585 17:0.4703951 18:0.084633306 19:-0.3916162 20:-0.0059278924 21:-0.85124081 22:-0.62979762 23:-0.31459679 24:-0.12037142 25:-0.021740886 26:0.33538281 27:-0.93055309 28:-0.098833433 29:-0.87607785 30:-0.12429065 31:-0.43209877 32:-0.63985459 33:0.15773335 34:-0.65410977 35:-0.91959867 
1 1:0.40352557 2:-0.61932235 3:-0.81926598 4:-0.60073661 5:-0.73566735 6:-0.57348665 7:0.036524826 8:-0.12691635 9:-0.76232894 10:-0.70221307 11:-0.93014572 12:-0.28140152 13:-0.99106759 14:-0.92725371 15:0.24096184 16:-0.60019737 17:-0.55301501 18:-0.61294827 19:-0.87710515 20:-0.78576846 21:-0.93352692 22:-0.99169143 23:-0.92091264 24:-0.88441252 25:0.18326119 26:-0.44368962 27:-0.98641145 28:0.47014644 29:-0.90331476 30:-0.091381193 31:0.11111111 32:-0.84890272 33:-0.9008924 34:-0.86276466 35:-0.98095331 
1 1:0.48293674 2:-0.67934954 3:-0.96064811 4:-0.83081382 5:-0.4216906 6:-0.6094037 7:-0.016143777 8:0.073351059 9:-0.50657445 10:-0.78587326 11:-0.8948033 12:-0.037029039 13:-0.7758974 14:-0.65081784 15:0.44956699 16:-0.53510233 17:-0.40592832 18:-0.050663323 19:-0.60803662 20:-0.84738681 21:-0.88653992 22:-0.77656743 23:-0.64035544 24:-0.59704904 25:0.21139956 26:-0.37561112 27:-0.972167 28:-0.16966062 29:-0.87039968 30:-0.29052737 31:-0.58024691 32:-0.77748691 33:-0.49744891 34:-0.79103351 35:-0.964217 
1 1:0.84821605 2:-0.81787084 3:-0.97424576 4:-0.85331187 5:-0.57963982 6:-0.36944867 7:-0.20857688 8:0.092863776 9:-0.51515654 10:-0.88807037 11:-0.61885502 12:0.42261114 13:-0.685567 14:-0.41056489 15:-0.016477541 16:-0.2142837 17:0.30987513 18:0.26678138 19:-0.2930965 20:-0.56935624 21:-0.62282429 22:-0.69460578 23:-0.22560807 24:-0.48152328 25:-0.13820318 26:0.0047246909 27:-0.84033956 28:-0.010644402 29:-0.91324967 30:-0.15452076 31:-0.45679012 32:-0.44605296 33:-0.36736368 34:-0.4581112 35:-0.82430152 
1 1:0.7240518 2:-0.54893296 3:-0.95117326 4:-0.81822239 5:-0.11945746 6:-0.35367967 7:0.14193847 8:0.014818914 9:-0.18019174 10:-0.69023982 11:-0.6920994 12:0.21334098 13:-0.95211962 14:-0.70174024 15:0.37913352 16:-0.3073573 17:-0.028717556 18:0.019783664 19:-0.62949747 20:-0.64178332 21:-0.69906552 22:-0.9539137 23:-0.6534547 24:-0.37016861 25:0.22887918 26:-0.14535849 27:-0.94522689 28:0.35579607 29:-0.98156489 30:-0.13374878 31:0.43209877 32:-0.681848 33:-0.75609557 34:-0.7021831 35:-0.93915395 
1 1:0.17242506 2:-0.77255868 3:-0.9329203 4:-0.79816739 5:-0.81638503 6:-0.31021766 7:0.11352951 8:-0.098192145 9:-0.83005834 10:-0.70844475 11:-0.97135079 12:-0.337867 13:-0.98083064 14:-0.82170028 15:0.28812943 16:-0.67608123 17:-0.33980839 18:-0.29020801 19:-0.78591014 20:-0.80120598 21:-0.94852659 22:-0.98150669 23:-0.71316996 24:-0.80268991 25:-0.019701447 26:-0.45994096 27:-0.97088137 28:0.8028956 29:-0.97212781 30:-0.29539364 31:-0.13580247 32:-0.77206864 33:-0.87770458 34:-0.75677504 35:-0.94747601 
1 1:0.80053858 2:-0.68050838 3:-0.84287135 4:-0.54627379 5:-0.4517824 6:-0.56019113 7:0.05235055 8:-0.029020267 9:-0.40249456 10:-0.6791432 11:-0.77409452 12:0.21898788 13:-0.33614204 14:0.25223466 15:0.13558003 16:-0.21914049 17:-0.38884028 18:0.43854385 19:-0.021462143 20:-0.25877736 21:-0.77537503 22:-0.32944739 23:-0.046400793 24:-0.53651291 25:0.24111668 26:0.19262002 27:-0.76916056 28:0.056399231 29:-0.87362467 30:-0.20467065 31:0.18518519 32:-0.3308048 33:-0.45756078 34:-0.35144477 35:-0.76411772 
1 1:0.52083542 2:-0.8893516 3:-0.85678408 4:-0.65161583 5:-0.72186519 6:-0.54319207 7:0.0063474031 8:0.011738428 9:-0.79063662 10:-0.69286284 11:-0.92394756 12:-0.13558475 13:-0.97868791 14:-0.80767402 15:0.090766722 16:-0.29798829 17:0.72334833 18:-0.43552306 19:-0.83016629 20:-0.74063065 21:-0.92759143 22:-0.98036599 23:-0.78432397 24:-0.9086345 25:-0.19205034 26:-0.18658337 27:-0.97971143 28:0.068048628 29:-0.95276897 30:-0.16478399 31:0.33333333 32:-0.8121676 33:-0.88200322 34:-0.82542838 35:-0.97274771 
1 1:0.57086457 2:-0.7559539 3:-0.98140964 4:-0.78546745 5:0.23593073 6:-0.7538757 7:-0.46843883 8:0.033732819 9:-0.14838249 10:-0.91196346 11:-0.47941656 12:0.36978521 13:-0.77550748 14:-0.23079121 15:0.15224702 16:-0.50995667 17:0.5766739 18:0.54949188 19:-0.11050605 20:-0.53648546 21:-0.45170179 22:-0.78184326 23:0.42744683 24:0.13712703 25:0.0094466795 26:0.11505229 27:-0.74351029 28:-0.018198885 29:-0.98551613 30:-0.13365715 31:-0.037037037 32:-0.29376855 33:-0.43434474 34:-0.30871202 35:-0.73114277 
1 1:0.16860074 2:-0.8561034 3:-0.9259457 4:-0.77750327 5:-0.59307655 6:-0.47337527 7:0.15829933 8:-0.15209351 9:-0.60715833 10:-0.71605197 11:-0.90926651 12:-0.18158751 13:-0.9641489 14:-0.84409474 15:0.33119467 16:-0.66080486 17:-0.26431529 18:-0.44279065 19:-0.82987288 20:-0.80861615 21:-0.90701631 22:-0.96461653 23:-0.80037514 24:-0.89214858 25:-0.16693307 26:-0.41083622 27:-0.98658339 28:0.15184782 29:-0.95201005 30:-0.047423207 31:-0.35802469 32:-0.84995251 33:-0.83619937 34:-0.84581395 35:-0.97442482 
1 1:0.70447757 2:-0.60484325 3:-0.95634129 4:-0.77396814 5:-0.39660652 6:-0.6586633 7:-0.29361869 8:0.10695951 9:-0.45889969 10:-0.90457809 11:-0.83007215 12:0.076281597 13:-0.60618577 14:-0.20102702 15:0.10608713 16:-0.23795509 17:-0.41158035 18:0.32819585 19:-0.23133196 20:-0.30283367 21:-0.82127028 22:-0.65393301 23:-0.028074216 24:-0.42941102 25:0.17617384 26:-0.045790622 27:-0.86972554 28:-0.082358493 29:-0.94258281 30:-0.13724036 31:-0.20987654 32:-0.50110458 33:-0.75829349 34:-0.51693895 35:-0.85798039 
1 1:0.15429168 2:-0.76922823 3:-0.91358602 4:-0.70539014 5:-0.7508923 6:-0.2953019 7:0.097659092 8:-0.00033285635 9:-0.79193127 10:-0.64543668 11:-0.96730209 12:-0.38186962 13:-0.9541233 14:-0.80444086 15:0.6255643 16:-0.66203458 17:0.4196355 18:-0.48634884 19:-0.81599086 20:-0.67307626 21:-0.96362524 22:-0.95367239 23:-0.83961133 24:-0.86865095 25:0.18439287 26:-0.25672928 27:-0.98552433 28:0.58855014 29:-0.92019342 30:-0.24157194 31:-0.18518519 32:-0.84358812 33:-0.85111872 34:-0.83971476 35:-0.97303916 
1 1:0.5541767 2:-0.96410331 3:-0.97466479 4:-0.63666277 5:-0.68598255 6:-0.44380935 7:-0.20641909 8:0.066484576 9:-0.58757684 10:-0.90632344 11:-0.95421058 12:-0.32572658 13:-0.8997103 14:-0.75565806 15:0.051796598 16:-0.50363762 17:0.56813699 18:-0.044502619 19:-0.67337189 20:-0.54993305 21:-0.95352754 22:-0.90641689 23:-0.69785676 24:-0.43148561 25:-0.55599538 26:0.090885227 27:-0.9650846 28:-0.18023632 29:-0.89863856 30:-0.34725125 31:-0.55555556 32:-0.74900139 33:-0.85635701 34:-0.76193723 35:-0.95595107 
1 1:0.75669633 2:-0.64540189 3:-0.95640629 4:-0.72225652 5:-0.36065065 6:-0.41684209 7:-0.31230385 8:-0.0035948337 9:-0.37147949 10:-0.91767729 11:-0.69217438 12:0.3610285 13:-0.67148776 14:-0.11297078 15:-0.21944582 16:-0.36987248 17:-0.34928027 18:0.62683329 19:-0.063943283 20:-0.57179275 21:-0.70718957 22:-0.66889669 23:0.29393313 24:0.038109734 25:0.33052364 26:-0.051274104 27:-0.79877285 28:0.069728197 29:-0.98399514 30:-0.12421504 31:-0.40740741 32:-0.37622337 33:-0.095931302 34:-0.39677873 35:-0.79302032 
1 1:0.32957043 2:-0.69291371 3:-0.90288048 4:-0.74365291 5:-0.57165668 6:-0.61584377 7:-0.23667658 8:0.020271075 9:-0.65250352 10:-0.87619135 11:-0.83806238 12:-0.028354612 13:-0.79207409 14:-0.50356601 15:-0.27887623 16:-0.56461484 17:-0.49115877 18:0.30318932 19:-0.3459689 20:-0.5639887 21:-0.79889246 22:-0.78972405 23:-0.098859141 24:-0.61303762 25:0.19224812 26:0.056251719 27:-0.78699501 28:-0.55399276 29:-0.97962052 30:0.15820284 31:-0.35802469 32:-0.35778318 33:-0.7436436 34:-0.37130038 35:-0.77247677 
1 1:0.59799217 2:-0.66790312 3:-0.80502863 4:-0.6464197 5:-0.68844125 6:-0.55783173 7:0.32496088 8:0.043632786 9:-0.80374493 10:-0.47438137 11:-0.94022428 12:-0.36602433 13:-0.98424939 14:-0.89791746 15:0.5108127 16:-0.37866714 17:-0.39188701 18:-0.58549369 19:-0.86176683 20:-0.72858884 21:-0.94097229 22:-0.98911934 23:-0.92109714 24:-0.88063715 25:0.067196589 26:-0.45756983 27:-0.9804363 28:0.57141816 29:-0.94666774 30:-0.10827225 31:0.28395062 32:-0.81581618 33:-0.94273183 34:-0.83362239 35:-0.97546809 
0.6246288020865625 1:0.29961729 2:-0.82022142 3:-0.95100966 4:-0.55027708 5:-0.82507828 6:0.11019358 7:0.37281396 8:0.25428735 9:-0.6418276 10:-0.49372156 11:-0.95446494 12:-0.31004015 13:-0.90260325 14:-0.83800876 15:-0.38181732 16:-0.54540302 17:0.19813813 18:-0.51886669 19:-0.83750472 20:-0.61993995 21:-0.95170339 22:-0.91557228 23:-0.8608899 24:-0.90091934 25:-0.08924822 26:-0.24940172 27:-0.98965092 28:0.16638038 29:-0.64347283 30:-0.66249658 31:0.65432099 32:-0.86994536 33:-0.81202268 34:-0.87588408 35:-0.98235975 
1 1:0.7194577 2:-0.7236628 3:-0.94478138 4:-0.81994132 5:0.31677439 6:-0.75553208 7:-0.070274335 8:0.0094263365 9:-0.019568034 10:-0.8435716 11:-0.27768689 12:0.6494136 13:-0.77928202 14:-0.43253137 15:-0.2507679 16:-0.30897365 17:0.64811646 18:0.1450859 19:-0.40349473 20:-0.61589199 21:-0.3123326 22:-0.78109989 23:-0.24473421 24:-0.32704183 25:0.023748376 26:-0.0062362977 27:-0.87435419 28:0.00021725196 29:-0.97838067 30:-0.27131609 31:0.13580247 32:-0.51032213 33:-0.411464 34:-0.52091151 35:-0.85765194 
1 1:0.25392846 2:-0.76602285 3:-0.92430436 4:-0.81572765 5:-0.55913535 6:-0.47928543 7:-0.02560352 8:0.059657863 9:-0.61974434 10:-0.77388171 11:-0.94533306 12:-0.29944695 13:-0.97674285 14:-0.90913847 15:-0.21187515 16:-0.61922389 17:-0.60390046 18:-0.60178004 19:-0.88857568 20:-0.7528379 21:-0.93900756 22:-0.97969674 23:-0.94108423 24:-0.95334817 25:0.098379451 26:-0.43108613 27:-0.99179056 28:5.2732382e-05 29:-0.89141268 30:-0.1106777 31:-0.48148148 32:-0.88569689 33:-0.89423321 34:-0.8959361 35:-0.98661262 
1 1:0.25877966 2:-0.77100079 3:-0.98649063 4:-0.7513242 5:-0.83173081 6:-0.10181076 7:0.1786058 8:-0.2978819 9:-0.53302758 10:-0.64893056 11:-0.94593198 12:-0.33541832 13:-0.98067795 14:-0.84832637 15:0.63696457 16:-0.72691299 17:0.063356603 18:-0.26386075 19:-0.78608745 20:-0.49746318 21:-0.94810616 22:-0.98148398 23:-0.82614311 24:-0.5002369 25:-0.11646595 26:-0.16328954 27:-0.96215316 28:-0.16010243 29:-0.96337423 30:-0.10150246 31:0.20987654 32:-0.73806462 33:-0.62551002 34:-0.74206266 35:-0.94754828 
1 1:0.79022469 2:-0.83270848 3:-0.91648577 4:-0.73494763 5:-0.30774179 6:-0.65368316 7:-0.32456101 8:-0.053702419 9:-0.27432998 10:-0.8691039 11:-0.68748317 12:0.29557826 13:-0.75510239 14:-0.17920315 15:-0.28761966 16:-0.29957962 17:0.30441931 18:0.48114961 19:-0.21625742 20:-0.32117037 21:-0.69410478 22:-0.7532659 23:0.17696255 24:0.17000219 25:-0.25948403 26:0.039895767 27:-0.85156166 28:0.032243004 29:-0.99197662 30:-0.15965466 31:-0.13580247 32:-0.46642494 33:-0.66780615 34:-0.48937024 35:-0.84759169 
1 1:0.56192738 2:-0.44393611 3:-0.89617517 4:-0.57334058 5:-0.74301681 6:-0.6414846 7:-0.52598307 8:-0.00017876268 9:-0.70415645 10:-0.91187234 11:-0.96392394 12:-0.33501504 13:-0.79785037 14:-0.50171172 15:-0.28805306 16:-0.41982101 17:-0.495736 18:-0.16319967 19:-0.59220543 20:-0.82909868 21:-0.96571412 22:-0.80640163 23:-0.70511362 24:-0.63579442 25:0.36079972 26:-0.44105875 27:-0.95886774 28:-0.013580928 29:-0.98912011 30:-0.21993502 31:-0.012345679 32:-0.72629784 33:-0.24784232 34:-0.74236809 35:-0.9509264 
1 1:0.2236525 2:-0.37999805 3:-0.93064571 4:-0.90398632 5:-0.708944 6:-0.77548128 7:-0.18610604 8:-0.063992078 9:-0.7823006 10:-0.82844866 11:-0.94101691 12:-0.22524932 13:-0.94941206 14:-0.87942184 15:0.36420572 16:-0.6343088 17:-0.09104109 18:-0.63057375 19:-0.83299946 20:-0.90453033 21:-0.93113024 22:-0.9873127 23:-0.87700253 24:-0.93732136 25:0.37544353 26:-0.49848891 27:-0.99226227 28:0.43090308 29:-0.97641691 30:-0.2061334 31:-0.086419753 32:-0.88943334 33:-0.93138272 34:-0.90185526 35:-0.98788189 
1 1:0.7890653 2:-0.62778083 3:-0.97739194 4:-0.66677497 5:-0.2958236 6:-0.69369143 7:-0.1203546 8:0.16883598 9:-0.49937895 10:-0.76493374 11:-0.58107828 12:0.3983397 13:-0.66423733 14:-0.1429727 15:0.1044781 16:-0.17032665 17:0.33018156 18:0.43318625 19:-0.13376521 20:-0.099489341 21:-0.57566105 22:-0.67156906 23:0.16595427 24:-0.15924629 25:0.29336208 26:0.33622131 27:-0.70019718 28:-0.39268005 29:-0.98044715 30:-0.12703156 31:0.037037037 32:-0.23520778 33:-0.5709012 34:-0.26298756 35:-0.70752565 
1 1:0.19391611 2:-0.83287397 3:-0.94498022 4:-0.75525603 5:-0.78394031 6:-0.33613665 7:0.23624949 8:-0.09144979 9:-0.75968694 10:-0.62835154 11:-0.87962141 12:-0.1779708 13:-0.9963816 14:-0.96647965 15:0.20387569 16:-0.72850656 17:0.4723521 18:-0.6672384 19:-0.92122418 20:-0.8378725 21:-0.88342828 22:-0.99810646 23:-0.92853849 24:-0.90268966 25:-0.063795023 26:-0.53199063 27:-0.98373953 28:0.42511319 29:-0.95338133 30:-0.13575398 31:0.25925926 32:-0.83336414 33:-0.90835089 34:-0.83372982 35:-0.97233362 
1 1:0.48675094 2:-0.6218186 3:-0.97155644 4:-0.76189819 5:-0.30285777 6:-0.098777159 7:0.049509331 8:0.046559589 9:-0.40231304 10:-0.6302055 11:-0.48215822 12:0.42338563 13:-0.87375229 14:-0.49496009 15:0.34243595 16:-0.49331439 17:0.2261901 18:-0.11118961 19:-0.55815389 20:-0.5784852 21:-0.49985108 22:-0.87308501 23:-0.6049937 24:-0.83177767 25:0.20566619 26:-0.10685692 27:-0.92255306 28:0.27780905 29:-0.95186099 30:-0.21058589 31:0.28395062 32:-0.61882684 33:-0.86674787 34:-0.61965105 35:-0.90033737 
1 1:0.6805817 2:-0.6576618 3:-0.89341124 4:-0.52482488 5:-0.70787763 6:-0.40694195 7:-0.042658881 8:0.13604293 9:-0.59719076 10:-0.79345586 11:-0.77952199 12:-0.1203493 13:-0.53515902 14:-0.73977752 15:0.26085449 16:-0.33743896 17:-0.75861303 18:0.28884959 19:-0.44688394 20:-0.58833904 21:-0.78979212 22:-0.5440006 23:-0.76445989 24:-0.74915331 25:0.23609365 26:-0.11138955 27:-0.92116498 28:0.17328646 29:-0.92490519 30:-0.14657453 31:-0.60493827 32:-0.61529073 33:-0.56890192 34:-0.63944975 35:-0.91753654 
1 1:0.43594034 2:-0.74171871 3:-0.84547366 4:-0.73812144 5:-0.42171774 6:-0.59872671 7:0.098892753 8:-0.16750411 9:-0.36919627 10:-0.70354889 11:-0.7550053 12:-0.0097031244 13:-0.94588321 14:-0.84647204 15:0.57294678 16:-0.57879525 17:-0.036050796 18:-0.46926993 19:-0.78403515 20:-0.67026317 21:-0.76002145 22:-0.98328999 23:-0.83235449 24:-0.84389426 25:0.083943583 26:-0.2638473 27:-0.96628188 28:0.67441834 29:-0.93673475 30:-0.088115 31:-0.012345679 32:-0.75359941 33:-0.92335063 34:-0.7621439 35:-0.95490998 
1 1:0.63783259 2:-0.67261861 3:-0.84631289 4:-0.72867352 5:-0.63515411 6:-0.59197822 7:-0.048048549 8:0.10736942 9:-0.51631315 10:-0.8613078 11:-0.79232537 12:0.049503807 13:-0.24849293 14:0.090290947 15:0.30593576 16:-0.34280728 17:-0.46758773 18:0.21369476 19:-0.140214 20:-0.68952301 21:-0.79307935 22:-0.27291033 23:-0.35635435 24:-0.39060131 25:0.11159527 26:0.19482025 27:-0.77563157 28:0.35791627 29:-0.91499857 30:-0.14921754 31:-0.65432099 32:-0.34046898 33:0.26522581 34:-0.36229997 35:-0.77199048 
1 1:0.58501079 2:-0.57903596 3:-0.79539562 4:-0.59184018 5:-0.2764989 6:-0.32025322 7:0.019287209 8:0.026401862 9:-0.35524577 10:-0.75151787 11:-0.55401105 12:0.37184151 13:-0.1740143 14:0.30339478 15:-0.35675339 16:-0.34141322 17:-0.44277806 18:0.53366923 19:0.16842837 20:-0.27487876 21:-0.57157783 22:-0.181631 23:0.27044061 24:-0.38903358 25:0.31020871 26:0.23158778 27:-0.62882607 28:0.38970166 29:-0.92137978 30:-0.24361537 31:0.061728395 32:-0.14728314 33:0.38349437 34:-0.16913076 35:-0.6296808 
0.1497655515806888 1:0.64795073 2:-0.29165509 3:-0.90967475 4:-0.59477641 5:-0.60425551 6:-0.50166404 7:-0.28178382 8:0.13667759 9:-0.66981347 10:-0.87042717 11:-0.88438461 12:-0.010738413 13:-0.33611837 14:-0.18219862 15:0.19187898 16:-0.3777361 17:-0.027018977 18:0.66443612 19:0.058179134 20:-0.57650968 21:-0.88863855 22:-0.36083841 23:0.36084367 24:-0.15440499 25:0.60533836 26:-0.12364869 27:-0.72568778 28:-0.090694983 29:-0.93826496 30:-0.19727342 31:-0.48148148 32:-0.26911558 33:0.095277298 34:-0.28133079 35:-0.70948359 
1 1:0.65851073 2:-0.77083235 3:-0.94556213 4:-0.77015749 5:0.1484067 6:-0.71824087 7:-0.39548343 8:0.0445486 9:0.47393466 10:-0.88314175 11:-0.65448162 12:0.45489485 13:-0.57726421 14:0.0056579799 15:0.052279003 16:-0.37028936 17:0.11037214 18:0.404763 19:-0.16392631 20:0.10093157 21:-0.67147943 22:-0.58592123 23:0.15519195 24:-0.17590536 25:-0.079342266 26:0.41274881 27:-0.84521787 28:0.26687102 29:-0.97917567 30:-0.2484757 31:-0.38271605 32:-0.45481787 33:-0.39969796 34:-0.45982305 35:-0.82156218 
1 1:0.61732151 2:-0.62857599 3:-0.8364817 4:-0.60257282 5:-0.16352754 6:-0.72345549 7:-0.17873313 8:0.031316177 9:-0.17978643 10:-0.81558223 11:-0.56394502 12:0.37947746 13:-0.28702363 14:0.2527576 15:-0.44218825 16:-0.3290773 17:-0.33387532 18:0.50825147 19:0.092875969 20:-0.27493594 21:-0.58066161 22:-0.27911504 23:0.32363709 24:-0.3613171 25:0.31060603 26:0.16964084 27:-0.67980179 28:0.34307192 29:-0.92581969 30:-0.16943288 31:-0.30864198 32:-0.20910343 33:-0.21109543 34:-0.2294985 35:-0.67663961 
1 1:0.54544027 2:-0.6984076 3:-0.87496548 4:-0.79100723 5:0.80714353 6:-0.31191359 7:0.08076509 8:0.16038043 9:0.90250232 10:-0.70089851 11:0.87664616 12:0.79168932 13:-0.78856329 14:-0.53000193 15:-0.079102791 16:-0.52475889 17:-0.28029649 18:0.010225574 19:-0.44116033 20:-0.1834867 21:0.78607583 22:-0.79180069 23:-0.54540141 24:-0.33905407 25:0.025330096 26:0.22412301 27:-0.80923478 28:0.23982931 29:-0.94050734 30:-0.28815719 31:-0.50617284 32:-0.39306094 33:-0.55489397 34:-0.41230582 35:-0.80172676 
1 1:0.78960286 2:-0.66529496 3:-0.92020971 4:-0.68227409 5:-0.49660881 6:-0.43803129 7:-0.20337997 8:0.13482833 9:-0.62775805 10:-0.84590588 11:-0.84331365 12:0.10428276 13:-0.40707223 14:0.041555708 15:0.29952507 16:-0.20227819 17:-0.12468139 18:0.44622912 19:-0.11380269 20:-0.70863449 21:-0.83924866 22:-0.40615537 23:-0.19018484 24:0.14330913 25:0.14521996 26:-0.073876348 27:-0.8368217 28:-0.25594956 29:-0.94800195 30:-0.24561363 31:0.18518519 32:-0.43981517 33:-0.62116753 34:-0.46862003 35:-0.83956972 
1 1:0.19862726 2:-0.89491522 3:-0.90888374 4:-0.74314417 5:-0.76854514 6:-0.62648844 7:-0.037324639 8:-0.070948632 9:-0.69343509 10:-0.76513661 11:-0.93881851 12:-0.31070389 13:-0.99060841 14:-0.88241728 15:-0.1074798 16:-0.60488369 17:-0.61783931 18:-0.33362158 19:-0.8727456 20:-0.76926765 21:-0.94169951 22:-0.99182407 23:-0.76372191 24:-0.64173578 25:-0.19322125 26:-0.26565704 27:-0.99255365 28:-0.20796319 29:-0.95124493 30:-0.2022543 31:0.25925926 32:-0.89179758 33:-0.9455256 34:-0.89943783 35:-0.98689878 
1 1:0.24685329 2:-0.85408737 3:-0.92646675 4:-0.89911035 5:-0.24721631 6:-0.38170966 7:-0.21907077 8:-0.051549104 9:-0.25198338 10:-0.84251803 11:-0.55476114 12:0.3431201 13:-0.78535376 14:-0.50337582 15:0.21935871 16:-0.67993694 17:0.8117766 18:-0.21677375 19:-0.60220924 20:-0.57874023 21:-0.57688463 22:-0.78304757 23:-0.61458752 24:-0.83067598 25:-0.12252077 26:-0.15522729 27:-0.96931667 28:0.40334653 29:-0.95768742 30:-0.47757141 31:0.18518519 32:-0.76563254 33:-0.46528206 34:-0.75511523 35:-0.94806133 
1 1:0.51173372 2:-0.60387263 3:-0.93786377 4:-0.79489104 5:-0.21299894 6:-0.61367515 7:-0.24737429 8:-0.062277889 9:-0.37068572 10:-0.8638807 11:-0.64456939 12:0.33706505 13:-0.77611062 14:-0.27905101 15:-0.19884708 16:-0.61694548 17:0.0036277516 18:0.34256906 19:-0.3379635 20:-0.49193223 21:-0.66186598 22:-0.78459159 23:-0.15771345 24:0.027627007 25:0.34325735 26:-0.079096822 27:-0.87061619 28:0.55629896 29:-0.99289968 30:-0.081038185 31:0.037037037 32:-0.50286536 33:-0.33297015 34:-0.51107693 35:-0.85158405 
1 1:0.59855074 2:-0.82337339 3:-0.95171044 4:-0.67919874 5:-0.15369552 6:-0.67683942 7:-0.53347326 8:0.0061621262 9:0.13188125 10:-0.9682739 11:-0.56262485 12:0.45240125 13:-0.63576361 14:-0.072128284 15:-0.12361934 16:-0.38228039 17:0.490547 18:0.27763921 19:-0.10875658 20:-0.19255088 21:-0.58328246 22:-0.66731839 23:-0.13809541 24:-0.36560722 25:-0.028205155 26:0.34000397 27:-0.73285473 28:0.0073418374 29:-0.98811922 30:-0.18347006 31:-0.55555556 32:-0.27893012 33:-0.4806766 34:-0.27955839 35:-0.70003028 
1 1:0.64599922 2:-0.8417756 3:-0.89399315 4:-0.58827595 5:-0.80924076 6:-0.56380268 7:-0.025467862 8:-0.00087831342 9:-0.80793901 10:-0.75320922 11:-0.97692197 12:-0.38980197 13:-0.97694597 14:-0.87248003 15:0.42889769 16:-0.4054093 17:-0.64972932 18:-0.57575319 19:-0.85693871 20:-0.76282842 21:-0.97807202 22:-0.9807281 23:-0.87325114 24:-0.95127178 25:-0.12265346 26:-0.31750619 27:-0.98808391 28:0.57323357 29:-0.89302736 30:-0.32220622 31:-0.48148148 32:-0.85941258 33:-0.85989186 34:-0.8852543 35:-0.98693638 
1 1:0.44524147 2:-0.84908526 3:-0.91937319 4:-0.80595977 5:-0.42127217 6:-0.45378764 7:-0.11937281 8:-0.15009467 9:-0.28424206 10:-0.83462517 11:-0.63174448 12:0.36267606 13:-0.68922376 14:-0.36330353 15:0.39302359 16:-0.54844445 17:0.32440913 18:0.196346 19:-0.33684955 20:-0.42764565 21:-0.60124853 22:-0.6883803 23:-0.22991295 24:-0.20551391 25:-0.12800623 26:0.13164289 27:-0.88013754 28:0.032066321 29:-0.93572008 30:-0.070357819 31:-0.43209877 32:-0.52208098 33:-0.3226387 34:-0.49826337 35:-0.82915082 
1 1:0.78312729 2:-0.64153967 3:-0.88385133 4:-0.77651031 5:0.25262574 6:-0.1049582 7:0.1073754 8:-0.11226593 9:0.050345402 10:-0.61953961 11:-0.20426755 12:0.37857181 13:-0.95825704 14:-0.81704072 15:-0.30160514 16:-0.29797302 17:0.04368786 18:0.062905501 19:-0.61381913 20:-0.62811788 21:-0.23160089 22:-0.95915142 23:-0.77725164 24:-0.79578253 25:0.17402783 26:-0.34634134 27:-0.87393716 28:-0.15923889 29:-0.98498231 30:-0.34129607 31:-0.20987654 32:-0.50948479 33:-0.77525181 34:-0.51537685 35:-0.85258681 
1 1:0.79202513 2:-0.5093974 3:-0.93237556 4:-0.68531157 5:-0.43023604 6:-0.63816416 7:0.1587728 8:0.47711971 9:-0.41817423 10:-0.61410858 11:-0.78037966 12:0.075054868 13:-0.94715403 14:-0.63531765 15:0.21364419 16:-0.04575315 17:0.32137024 18:-0.25550605 19:-0.69605502 20:-0.64752543 21:-0.7804172 22:-0.94653954 23:-0.70062423 24:-0.65384979 25:0.26465744 26:-0.26945858 27:-0.93228602 28:0.30266411 29:-0.90124023 30:-0.19159245 31:0.061728395 32:-0.64456643 33:-0.62779256 34:-0.65330566 35:-0.91704593 
1 1:0.70923529 2:-0.71439212 3:-0.90571532 4:-0.3919192 5:-0.48763276 6:-0.40488455 7:0.028186888 8:0.17247862 9:-0.61243072 10:-0.76738927 11:-0.87151131 12:-0.073900937 13:-0.57414475 14:-0.12704456 15:-0.056682902 16:-0.20555091 17:-0.79885577 18:0.18828132 19:-0.24024557 20:-0.0175119 21:-0.87785982 22:-0.58452545 23:-0.27247012 24:-0.58830269 25:0.10917646 26:0.24838266 27:-0.82216951 28:0.10795353 29:-0.93229311 30:-0.096752693 31:-0.40740741 32:-0.41452983 33:-0.17286763 34:-0.43326582 35:-0.81389743 
1 1:0.5216092 2:-0.85667532 3:-0.95671945 4:-0.73995386 5:-0.49107772 6:-0.66694089 7:-0.4425448 8:0.069613955 9:-0.49167091 10:-0.94453378 11:-0.84864219 12:0.07009052 13:-0.72390284 14:-0.1174401 15:0.11128501 16:-0.47633138 17:0.69043024 18:0.35140249 19:-0.19595554 20:-0.47756304 21:-0.84017308 22:-0.73432986 23:-0.1943668 24:-0.19380157 25:-0.13319104 26:0.15190077 27:-0.79964849 28:0.029192174 29:-0.96255955 30:-0.16178556 31:0.11111111 32:-0.37761561 33:-0.36248299 34:-0.38093193 35:-0.77236592 
1 1:0.75223774 2:-0.65792662 3:-0.88222492 4:-0.61764804 5:-0.53125822 6:-0.41480592 7:-0.26572818 8:0.061764739 9:-0.56925627 10:-0.89729344 11:-0.86058825 12:0.041063474 13:-0.66448411 14:-0.34647214 15:-0.21028907 16:-0.20494486 17:-0.24211744 18:-0.01745843 19:-0.4470241 20:-0.44573819 21:-0.84790342 22:-0.70385077 23:-0.46434615 24:-0.62637936 25:0.20399857 26:-0.066406007 27:-0.90224222 28:-0.035048666 29:-0.94286218 30:-0.26527507 31:-0.60493827 32:-0.56987303 33:-0.41204851 34:-0.59364819 35:-0.89833257 
0.4128423843913758 1:0.57057056 2:-0.64386204 3:-0.87813069 4:-0.83801448 5:0.029059984 6:-0.095383691 7:0.077496671 8:-0.013152867 9:-0.30557505 10:-0.76486507 11:-0.59114697 12:0.24865424 13:-0.71173073 14:-0.6520065 15:0.25843194 16:-0.57993365 17:-0.25528243 18:-0.11332648 19:-0.59335696 20:-0.56850389 21:-0.59586039 22:-0.71478432 23:-0.72430123 24:-0.53946405 25:0.27090893 26:-0.13167333 27:-0.95258965 28:0.1999601 29:-0.80513516 30:-0.34664053 31:-0.48148148 32:-0.70504941 33:-0.74803468 34:-0.7317391 35:-0.95071196 
1 1:0.41186073 2:-0.7582871 3:-0.97426631 4:-0.89102702 5:-0.28328543 6:-0.61255635 7:0.37568681 8:-0.017446922 9:-0.33096966 10:-0.25804207 11:-0.73064113 12:0.18728487 13:-0.97960352 14:-0.78970141 15:0.15099219 16:-0.5761716 17:0.38024335 18:-0.38855229 19:-0.81619137 20:-0.81137522 21:-0.71667311 22:-0.97949874 23:-0.80424959 24:-0.82377118 25:0.075523423 26:-0.46475031 27:-0.98103089 28:0.48529997 29:-0.96853126 30:-0.18366698 31:0.18518519 32:-0.81885942 33:-0.94057649 34:-0.83370111 35:-0.97495377 
1 1:0.64085956 2:-0.7138816 3:-0.67298738 4:-0.6618258 5:-0.4622281 6:-0.099247543 7:0.061316829 8:0.057513192 9:-0.31953368 10:-0.63891644 11:0.35509942 12:0.24297082 13:-0.88127298 14:-0.79806962 15:0.36515657 16:-0.49765219 17:-0.89590232 18:-0.18858042 19:-0.64081745 20:-0.53500786 21:0.287537 22:-0.88009385 23:-0.83948832 24:-0.60520248 25:0.13500668 26:-0.1497278 27:-0.82313679 28:-0.026579528 29:-0.83852476 30:-0.13083254 31:-0.38271605 32:-0.41616619 33:-0.45086138 34:-0.43459301 35:-0.81451817 
1 1:-0.051304165 2:-0.81616604 3:-0.98107849 4:-0.77950439 5:-0.62546863 6:-0.64380576 7:0.080124234 8:0.017366885 9:-0.37043483 10:-0.69674926 11:-0.95429302 12:-0.25176556 13:-0.96713914 14:-0.79193611 15:0.46929903 16:-0.83067431 17:0.39970082 18:-0.51360831 19:-0.82880545 20:0.23214486 21:-0.95634344 22:-0.96912078 23:-0.86076689 24:-0.87513053 25:-0.53711401 26:0.19909506 27:-0.98890593 28:0.65805791 29:-0.80947814 30:-0.1199662 31:-0.28395062 32:-0.86484615 33:-0.70767858 34:-0.86405363 35:-0.97898716 
1 1:0.59096992 2:-0.41904434 3:-0.89254786 4:-0.58578209 5:-0.77082344 6:-0.51090443 7:-0.041659325 8:0.083610455 9:-0.6550047 10:-0.84456253 11:-0.91663411 12:-0.1615553 13:-0.7614726 14:-0.31856223 15:0.4460414 16:-0.47922583 17:-0.16934117 18:0.12017417 19:-0.40451268 20:-0.68220555 21:-0.92068821 22:-0.7612744 23:-0.30383447 24:-0.56949952 25:0.46140385 26:-0.2942734 27:-0.90319313 28:0.035159118 29:-0.87763782 30:-0.036596978 31:-0.40740741 32:-0.57204441 33:-0.41692259 34:-0.58227761 35:-0.88754443 
1 1:0.4400151 2:-0.74888172 3:-0.83424543 4:-0.76207822 5:-0.22841612 6:-0.50073105 7:0.11587515 8:-0.083836988 9:-0.16703789 10:-0.68701139 11:-0.74616304 12:0.14404759 13:-0.89419202 14:-0.65019971 15:0.40717033 16:-0.65107118 17:-0.58776852 18:-0.16150728 19:-0.66327303 20:-0.530419 21:-0.74364778 22:-0.89296388 23:-0.66858337 24:-0.74825159 25:0.019671725 26:-0.11020542 27:-0.96013319 28:0.60449939 29:-0.88951423 30:-0.17706593 31:0.086419753 32:-0.73077253 33:-0.77307126 34:-0.74434437 35:-0.95084571 
1 1:0.65633779 2:-0.82501529 3:-0.90741231 4:-0.65757547 5:-0.53406738 6:-0.59929125 7:-0.10285125 8:0.047932971 9:-0.47251695 10:-0.84516278 11:-0.8985723 12:-0.092966371 13:-0.84631275 14:-0.37124385 15:-0.20502387 16:-0.39454859 17:-0.88969093 18:0.15595732 19:-0.45409124 20:-0.35462637 21:-0.90357718 22:-0.84508053 23:-0.23532488 24:-0.36114487 25:-0.072510386 26:0.11940813 27:-0.9180217 28:0.042073192 29:-0.89588189 30:-0.22570759 31:-0.48148148 32:-0.6073964 33:-0.32931596 34:-0.6260287 35:-0.91000073 
1 1:0.68751536 2:-0.64514856 3:-0.9464955 4:-0.83423054 5:-0.27130994 6:-0.45768381 7:0.094491132 8:0.15470532 9:-0.2427422 10:-0.65663925 11:-0.64474982 12:0.28410427 13:-0.90262217 14:-0.66493916 15:0.6258067 16:-0.27125308 17:0.44176627 18:-0.26893363 19:-0.67511745 20:-0.64634411 21:-0.65115239 22:-0.90201613 23:-0.69404386 24:-0.83075161 25:0.25059401 26:-0.14662047 27:-0.95020469 28:0.33231706 29:-0.9228692 30:-0.12128139 31:0.012345679 32:-0.69734884 33:-0.7257661 34:-0.7041828 35:-0.93553262 
1 1:0.31677113 2:-0.8479588 3:-0.95058773 4:-0.84461268 5:-0.36087909 6:-0.33162122 7:-0.25155974 8:-0.014595722 9:-0.4897984 10:-0.88457287 11:-0.66883751 12:0.12035274 13:-0.9188663 14:-0.81803919 15:0.24273215 16:-0.68574848 17:0.012379425 18:-0.20345003 19:-0.6964788 20:-0.80216481 21:-0.6722083 22:-0.91901971 23:-0.76507488 24:-0.71004103 25:-0.077152935 26:-0.15800039 27:-0.96096689 28:-0.0025317721 29:-0.97236632 30:-0.13177452 31:0.2345679 32:-0.73375933 33:-0.67314222 34:-0.73421382 35:-0.94405067 
1 1:0.47198078 2:-0.75788728 3:-0.94425994 4:-0.77869931 5:-0.22640444 6:-0.46731895 7:-0.0088161216 8:-0.25214583 9:-0.39022071 10:-0.73076264 11:-0.73292576 12:0.064104905 13:-0.85217917 14:-0.77681629 15:0.43885761 16:-0.62483348 17:0.034939001 18:-0.13379831 19:-0.67731583 20:-0.34722163 21:-0.74546072 22:-0.85868614 23:-0.59244797 24:-0.6748928 25:0.13108536 26:-0.13673876 27:-0.96084762 28:0.64143077 29:-0.88061708 30:-0.38247354 31:-0.50617284 32:-0.73333012 33:-0.76141191 34:-0.73896755 35:-0.9470033 
1 1:0.68242083 2:-0.33577179 3:-0.93606683 4:-0.55602211 5:-0.78411585 6:-0.5995805 7:-0.16257228 8:0.029464003 9:-0.79130561 10:-0.81247433 11:-0.90133119 12:-0.06012555 13:-0.79185753 14:-0.3168981 15:0.069613625 16:-0.32903485 17:-0.14982122 18:0.032662244 19:-0.42824926 20:-0.83816225 21:-0.90320737 22:-0.78959877 23:-0.37769445 24:-0.55814894 25:0.57946557 26:-0.26487654 27:-0.89985693 28:-0.099862401 29:-0.98807097 30:-0.13836577 31:-0.012345679 32:-0.56447218 33:-0.37275687 34:-0.58370577 35:-0.89204355 
1 1:0.56964794 2:-0.71121976 3:-0.78760127 4:-0.71818939 5:-0.3099874 6:-0.298914 7:-0.027320141 8:-0.063524549 9:-0.27966195 10:-0.76585439 11:-0.68176533 12:0.12072907 13:-0.73363501 14:-0.6692659 15:0.25631333 16:-0.45404146 17:0.44999245 18:-0.15585392 19:-0.59519466 20:-0.44821709 21:-0.69331987 22:-0.73201098 23:-0.67627071 24:-0.80141176 25:0.19128515 26:-0.10340834 27:-0.94549604 28:-0.50122274 29:-0.92538383 30:-0.36110829 31:-0.061728395 32:-0.68266771 33:-0.38025017 34:-0.69105397 35:-0.93145895 
1 1:-0.10512534 2:-0.64341489 3:-0.88230978 4:-0.66148327 5:-0.93053726 6:-0.68791633 7:0.093277473 8:-0.064153326 9:-0.90699501 10:-0.6430742 11:-0.9950343 12:-0.67639618 13:-0.9988459 14:-0.96590909 15:-0.1460347 16:-0.68209681 17:0.67392036 18:-0.80810213 19:-0.96417874 20:-0.93753245 21:-0.99438917 22:-0.998825 23:-0.95941085 24:-0.98841551 25:0.19944761 26:-0.73568483 27:-0.99780791 28:0.3707635 29:-0.94207135 30:-0.26388663 31:-0.086419753 32:-0.94722475 33:-0.97237548 34:-0.95779032 35:-0.99558151 
1 1:0.4467818 2:-0.62774512 3:-0.89913333 4:-0.70986919 5:-0.37227458 6:-0.63631395 7:0.23095369 8:-0.11030597 9:-0.60473599 10:-0.6049284 11:-0.83814803 12:0.11172114 13:-0.72768304 14:-0.43581211 15:0.29778415 16:-0.56756992 17:-0.59250347 18:0.057620825 19:-0.48104573 20:-0.33891536 21:-0.84509683 22:-0.72969989 23:-0.40364686 24:-0.26938896 25:0.28204868 26:0.044825507 27:-0.95182691 28:0.53306488 29:-0.88360399 30:-0.22994545 31:-0.20987654 32:-0.70256609 33:-0.67792146 34:-0.7019678 35:-0.93262849 
1 1:0.70756034 2:-0.71121026 3:-0.8565377 4:-0.3830819 5:-0.83179831 6:-0.60928058 7:-0.031996095 8:0.034471679 9:-0.67029665 10:-0.75907022 11:-0.94002242 12:-0.16957715 13:-0.73886541 14:-0.30244395 15:0.4663539 16:-0.30107648 17:-0.81305868 18:0.20073266 19:-0.42662498 20:-0.4219746 21:-0.94224441 22:-0.7366061 23:-0.22376313 24:-0.34513195 25:0.035560464 26:-0.10076742 27:-0.93998201 28:0.10694714 29:-0.85572383 30:-0.29686595 31:-0.45679012 32:-0.6662584 33:-0.47929525 34:-0.68475948 35:-0.93251134 
0.5097566435631042 1:0.1763393 2:-0.74030457 3:-0.91345327 4:-0.88439976 5:0.36586426 6:-0.53293673 7:-0.26841759 8:-0.20393984 9:0.090700584 10:-0.81734282 11:-0.14028723 12:0.67185393 13:-0.91773074 14:-0.65138836 15:0.17147453 16:-0.77234725 17:0.028813557 18:-0.19328836 19:-0.66632898 20:-0.59084595 21:-0.18310619 22:-0.91676677 23:-0.59496941 24:-0.64885097 25:0.22412264 26:-0.26288275 27:-0.9479216 28:0.31655094 29:-0.93922862 30:-0.28173472 31:-0.55555556 32:-0.6901477 33:-0.50220658 34:-0.68209159 35:-0.92295578 
1 1:0.17548216 2:-0.85948704 3:-0.9482174 4:-0.73209891 5:-0.66937785 6:-0.68742386 7:0.15229518 8:0.0077016049 9:-0.53544094 10:-0.655133 11:-0.91663577 12:-0.17567646 13:-0.9689515 14:-0.83981553 15:0.012783338 16:-0.702832 17:-0.5714103 18:-0.32166134 19:-0.80230892 20:-0.60809364 21:-0.91016313 22:-0.96915036 23:-0.81802529 24:-0.60586415 25:-0.16880059 26:-0.17067901 27:-0.98463335 28:0.29517093 29:-0.97437665 30:-0.20620946 31:-0.25925926 32:-0.83841058 33:-0.76207916 34:-0.83462657 35:-0.97183527 
1 1:0.58769873 2:-0.6656206 3:-0.92116132 4:-0.67638098 5:-0.2405247 6:-0.66517991 7:-0.1322506 8:0.099885881 9:0.34146787 10:-0.83330414 11:-0.5684431 12:0.33886543 13:-0.0059972202 14:0.72080622 15:0.19811944 16:-0.3091882 17:-0.35008613 18:0.40464942 19:0.20886417 20:0.39992601 21:-0.56674306 22:-0.0058698343 23:0.054703058 24:-0.54968512 25:0.083034209 26:0.42649309 27:-0.633478 28:0.24105295 29:-0.94142339 30:-0.14458705 31:-0.28395062 32:-0.15274107 33:-0.14282559 34:-0.16657934 35:-0.62075258 
